{"learner":{"attributes":{"scikit_learn":"{\"use_label_encoder\": true, \"n_estimators\": 100, \"objective\": \"multi:softprob\", \"max_depth\": 3, \"learning_rate\": null, \"verbosity\": null, \"booster\": \"gbtree\", \"tree_method\": null, \"gamma\": 0, \"min_child_weight\": null, \"max_delta_step\": null, \"subsample\": 0.5, \"colsample_bytree\": 0.5, \"colsample_bylevel\": null, \"colsample_bynode\": null, \"reg_alpha\": null, \"reg_lambda\": 0, \"scale_pos_weight\": null, \"base_score\": null, \"missing\": NaN, \"num_parallel_tree\": null, \"kwargs\": {}, \"random_state\": null, \"n_jobs\": null, \"monotone_constraints\": null, \"interaction_constraints\": null, \"importance_type\": \"gain\", \"gpu_id\": null, \"validate_parameters\": null, \"classes_\": [1.0, 2.0, 3.0], \"n_classes_\": 3, \"_le\": {\"classes_\": [1.0, 2.0, 3.0]}, \"_estimator_type\": \"classifier\"}"},"feature_names":["baseline value","accelerations","fetal_movement","uterine_contractions","light_decelerations","severe_decelerations","prolongued_decelerations","abnormal_short_term_variability","mean_value_of_short_term_variability","percentage_of_time_with_abnormal_long_term_variability","mean_value_of_long_term_variability","histogram_width","histogram_min","histogram_max","histogram_number_of_peaks","histogram_number_of_zeroes","histogram_mode","histogram_mean","histogram_median","histogram_variance","histogram_tendency"],"feature_types":["float","float","float","float","float","float","float","float","float","float","float","float","float","float","float","float","float","float","float","float","float"],"gradient_booster":{"model":{"gbtree_model_param":{"num_trees":"300","size_leaf_vector":"0"},"tree_info":[0,1,2,0,1,2,0,1,2,0,1,2,0,1,2,0,1,2,0,1,2,0,1,2,0,1,2,0,1,2,0,1,2,0,1,2,0,1,2,0,1,2,0,1,2,0,1,2,0,1,2,0,1,2,0,1,2,0,1,2,0,1,2,0,1,2,0,1,2,0,1,2,0,1,2,0,1,2,0,1,2,0,1,2,0,1,2,0,1,2,0,1,2,0,1,2,0,1,2,0,1,2,0,1,2,0,1,2,0,1,2,0,1,2,0,1,2,0,1,2,0,1,2,0,1,2,0,1,2,0,1,2,0,1,2,0,1,2,0,1,2,0,1,2,0,1,2,0,1,2,0,1,2,0,1,2,0,1,2,0,1,2,0,1,2,0,1,2,0,1,2,0,1,2,0,1,2,0,1,2,0,1,2,0,1,2,0,1,2,0,1,2,0,1,2,0,1,2,0,1,2,0,1,2,0,1,2,0,1,2,0,1,2,0,1,2,0,1,2,0,1,2,0,1,2,0,1,2,0,1,2,0,1,2,0,1,2,0,1,2,0,1,2,0,1,2,0,1,2,0,1,2,0,1,2,0,1,2,0,1,2,0,1,2,0,1,2,0,1,2,0,1,2,0,1,2,0,1,2,0,1,2,0,1,2,0,1,2,0,1,2,0,1,2,0,1,2,0,1,2],"trees":[{"base_weights":[2.5774958E-2,-3.7262654E-1,1.0917511E0,-6.5017116E-1,-7.295194E-2,-7.5000006E-1,1.2742999E0,-6.8682057E-1,-9.402868E-2,3.285243E-1,-6.9830906E-1,6.669093E-2,1.3411978E0],"categories":[],"categories_nodes":[],"categories_segments":[],"categories_sizes":[],"default_left":[true,true,true,true,true,false,true,false,false,false,false,false,false],"id":0,"left_children":[1,3,5,7,9,-1,11,-1,-1,-1,-1,-1,-1],"loss_changes":[1.5569817E2,2.2196896E1,3.3534584E1,2.824047E0,3.221732E1,4.7683716E-7,7.331253E0,0E0,0E0,0E0,0E0,0E0,0E0],"parents":[2147483647,0,0,1,1,2,2,3,3,4,4,6,6],"right_children":[2,4,6,8,10,-1,12,-1,-1,-1,-1,-1,-1],"split_conditions":[1.5E-3,5.5E-1,9.3E1,6.5E-3,5E-4,-2.2500002E-1,5.5E-1,-2.0604618E-1,-2.8208606E-2,9.855729E-2,-2.0949273E-1,2.0007279E-2,4.0235937E-1],"split_indices":[1,8,16,3,6,0,8,0,0,0,0,0,0],"split_type":[0,0,0,0,0,0,0,0,0,0,0,0,0],"sum_hessian":[3.6661908E2,2.6687595E2,9.974312E1,1.3855385E2,1.2832211E2,8.994708E0,9.074841E1,1.2998775E2,8.566106E0,7.8150116E1,5.0171993E1,4.7633195E0,8.598509E1],"tree_param":{"num_deleted":"0","num_feature":"21","num_nodes":"13","size_leaf_vector":"0"}},{"base_weights":[-9.438429E-3,3.7353718E-1,-5.679452E-1,-7.5000006E-1,5.4398817E-1,-6.999393E-1,-3.6483303E-1,-3.9647272E-1,7.840403E-1,-7.241713E-1,5.9768613E-2,-5.474757E-1,2.1586439E-1],"categories":[],"categories_nodes":[],"categories_segments":[],"categories_sizes":[],"default_left":[true,true,true,false,true,true,true,false,false,false,false,false,false],"id":1,"left_children":[1,3,5,-1,7,9,11,-1,-1,-1,-1,-1,-1],"loss_changes":[7.887655E1,4.1893974E1,4.0215874E0,0E0,4.288131E1,1.6737747E0,6.26659E0,0E0,0E0,0E0,0E0,0E0,0E0],"parents":[2147483647,0,0,1,1,2,2,4,4,5,5,6,6],"right_children":[2,4,6,-1,8,10,12,-1,-1,-1,-1,-1,-1],"split_conditions":[8.5E0,4.25E1,6.45E0,-2.2500002E-1,4.1499996E0,7.15E1,7.5E0,-1.1894182E-1,2.3521209E-1,-2.1725139E-1,1.7930584E-2,-1.6424271E-1,6.475932E-2],"split_indices":[19,7,10,0,10,7,14,0,0,0,0,0,0],"split_type":[0,0,0,0,0,0,0,0,0,0,0,0,0],"sum_hessian":[3.6876385E2,2.1875832E2,1.5000552E2,2.8816E1,1.8994232E2,9.0920265E1,5.9085262E1,3.8623936E1,1.5131839E2,8.810987E1,2.8103948E0,4.4948067E1,1.4137198E1],"tree_param":{"num_deleted":"0","num_feature":"21","num_nodes":"13","size_leaf_vector":"0"}},{"base_weights":[3.8440194E-2,1.0413852E0,-4.0572375E-1,4.2793098E-1,1.406364E0,4.126161E-1,-6.3502365E-1,7.5886357E-1,-7.5000006E-1,1.4358096E0,-7.5000006E-1,9.1937E-1,-3.951869E-1,-3.3811876E-1,-7.250283E-1],"categories":[],"categories_nodes":[],"categories_segments":[],"categories_sizes":[],"default_left":[true,true,true,true,true,true,true,false,false,false,false,false,false,false,false],"id":2,"left_children":[1,3,5,7,9,11,13,-1,-1,-1,-1,-1,-1,-1,-1],"loss_changes":[1.7380602E2,2.6812439E1,5.074086E1,1.7413355E1,4.7673798E0,2.4227839E1,5.644478E0,0E0,0E0,0E0,0E0,0E0,0E0,0E0,0E0],"parents":[2147483647,0,0,1,1,2,2,3,3,4,4,5,5,6,6],"right_children":[2,4,6,8,10,12,14,-1,-1,-1,-1,-1,-1,-1,-1],"split_conditions":[1.255E2,5E-4,3.5000002E-1,5E-4,6.1000004E0,3.5E-3,5E-4,2.2765908E-1,-2.2500002E-1,4.307429E-1,-2.2500002E-1,2.7581102E-1,-1.18556075E-1,-1.0143563E-1,-2.175085E-1],"split_indices":[18,6,8,1,8,2,3,0,0,0,0,0,0,0,0],"split_type":[0,0,0,0,0,0,0,0,0,0,0,0,0,0,0],"sum_hessian":[3.901615E2,1.1975302E2,2.7040845E2,4.4670734E1,7.508229E1,5.918507E1,2.1122339E2,3.4873295E1,9.79744E0,7.407084E1,1.0114532E0,3.6369576E1,2.2815493E1,4.9135742E1,1.6208765E2],"tree_param":{"num_deleted":"0","num_feature":"21","num_nodes":"15","size_leaf_vector":"0"}},{"base_weights":[5.528422E-2,2.7030858E-1,-4.8922658E-1,-6.547644E-1,5.762082E-1,-6.654357E-1,-8.617824E-2,-6.7516506E-1,-7.203435E-2,1.0627178E0,3.9009285E-1,-5.7852626E-1,-7.005668E-1,1.301181E0,-2.084309E-1],"categories":[],"categories_nodes":[],"categories_segments":[],"categories_sizes":[],"default_left":[true,true,true,true,true,true,true,false,false,false,false,false,false,false,false],"id":3,"left_children":[1,3,5,7,9,11,13,-1,-1,-1,-1,-1,-1,-1,-1],"loss_changes":[4.0636124E1,7.040955E1,6.978197E0,7.350521E-1,1.6930817E1,2.0874023E-1,5.069462E0,0E0,0E0,0E0,0E0,0E0,0E0,0E0,0E0],"parents":[2147483647,0,0,1,1,2,2,3,3,4,4,5,5,6,6],"right_children":[2,4,6,8,10,12,14,-1,-1,-1,-1,-1,-1,-1,-1],"split_conditions":[2.55E1,1.095E2,2.5E-3,7E1,1.285E2,4.15E1,1.3E2,-2.0254953E-1,-2.1610307E-2,3.1881535E-1,1.1702786E-1,-1.7355788E-1,-2.1017006E-1,3.903543E-1,-6.252927E-2],"split_indices":[9,17,3,12,0,9,16,0,0,0,0,0,0,0,0],"split_type":[0,0,0,0,0,0,0,0,0,0,0,0,0,0,0],"sum_hessian":[3.470708E2,2.4881508E2,9.825573E1,6.183113E1,1.8698395E2,6.836651E1,2.9889221E1,5.9739723E1,2.0914104E0,5.173846E1,1.3524548E2,1.968031E1,4.8686203E1,2.420514E0,2.7468706E1],"tree_param":{"num_deleted":"0","num_feature":"21","num_nodes":"15","size_leaf_vector":"0"}},{"base_weights":[5.5293832E-2,-5.9295255E-1,5.6648105E-1,1.1786935E0,-6.0463476E-1,7.61754E-1,-7.809123E-1,-6.292572E-1,1.2430772E-1,8.600048E-1,-7.844127E-1,-7.2944534E-1,-8.5024893E-1],"categories":[],"categories_nodes":[],"categories_segments":[],"categories_sizes":[],"default_left":[true,true,true,false,true,true,true,false,false,false,false,false,false],"id":4,"left_children":[1,3,5,-1,7,9,11,-1,-1,-1,-1,-1,-1],"loss_changes":[1.2755288E2,3.512436E0,5.6624054E1,0E0,3.0260277E0,2.855481E1,9.7213745E-2,0E0,0E0,0E0,0E0,0E0,0E0],"parents":[2147483647,0,0,1,1,2,2,4,4,5,5,6,6],"right_children":[2,4,6,-1,8,10,12,-1,-1,-1,-1,-1,-1],"split_conditions":[2.5E0,2.05E1,6.85E1,3.5360807E-1,1.585E2,7.95E1,1.5E1,-1.8877716E-1,3.7292317E-2,2.5800145E-1,-2.3532382E-1,-2.1883361E-1,-2.5507468E-1],"split_indices":[9,11,9,0,18,7,11,0,0,0,0,0,0],"split_type":[0,0,0,0,0,0,0,0,0,0,0,0,0],"sum_hessian":[3.849198E2,1.6970879E2,2.15211E2,1.1117322E0,1.6859706E2,1.8796927E2,2.7241722E1,1.6308823E2,5.508835E0,1.7673846E2,1.1230805E1,1.5635706E1,1.1606016E1],"tree_param":{"num_deleted":"0","num_feature":"21","num_nodes":"13","size_leaf_vector":"0"}},{"base_weights":[-8.025469E-3,7.2834456E-1,-3.4072784E-1,1.2764387E0,5.672886E-1,-4.6220788E-1,1.5474446E0,1.2156676E0,1.5210378E0,-3.1631002E-1,9.761617E-1,-5.469871E-1,2.9676864E-1,1.2764195E0,1.7029474E0],"categories":[],"categories_nodes":[],"categories_segments":[],"categories_sizes":[],"default_left":[true,true,true,true,true,true,true,false,false,false,false,false,false,false,false],"id":5,"left_children":[1,3,5,7,9,11,13,-1,-1,-1,-1,-1,-1,-1,-1],"loss_changes":[9.326428E1,1.0457897E1,6.0144913E1,3.9994812E-1,3.3080555E1,1.5852245E1,6.680107E-1,0E0,0E0,0E0,0E0,0E0,0E0,0E0,0E0],"parents":[2147483647,0,0,1,1,2,2,3,3,4,4,5,5,6,6],"right_children":[2,4,6,8,10,12,14,-1,-1,-1,-1,-1,-1,-1,-1],"split_conditions":[3.85E0,1.7E1,6.85E1,3.65E0,5E-4,5E-4,1.29E2,3.647003E-1,4.5631137E-1,-9.489301E-2,2.9284853E-1,-1.6409615E-1,8.903059E-2,3.8292587E-1,5.108842E-1],"split_indices":[10,11,9,10,6,6,0,0,0,0,0,0,0,0,0],"split_type":[0,0,0,0,0,0,0,0,0,0,0,0,0,0,0],"sum_hessian":[3.806829E2,1.1847102E2,2.6221188E2,2.6906107E1,9.156492E1,2.4636162E2,1.5850257E1,2.155157E1,5.354536E0,2.8966545E1,6.2598377E1,2.216076E2,2.4754015E1,5.77866E0,1.0071597E1],"tree_param":{"num_deleted":"0","num_feature":"21","num_nodes":"15","size_leaf_vector":"0"}},{"base_weights":[1.6549692E-2,4.4453695E-1,-4.4502953E-1,6.2592465E-1,-2.0657322E-1,-1.731659E-1,-6.084856E-1,8.043731E-1,2.0763473E-1,2.344135E-2,-6.037071E-1,3.4219152E-1,-4.7398338E-1,-6.422653E-1,-2.5310993E-1],"categories":[],"categories_nodes":[],"categories_segments":[],"categories_sizes":[],"default_left":[true,true,true,true,true,true,true,false,false,false,false,false,false,false,false],"id":6,"left_children":[1,3,5,7,9,11,13,-1,-1,-1,-1,-1,-1,-1,-1],"loss_changes":[6.948356E1,2.155436E1,7.5198555E0,1.0654526E1,3.6323676E0,9.850578E0,1.2686615E0,0E0,0E0,0E0,0E0,0E0,0E0,0E0,0E0],"parents":[2147483647,0,0,1,1,2,2,3,3,4,4,5,5,6,6],"right_children":[2,4,6,8,10,12,14,-1,-1,-1,-1,-1,-1,-1,-1],"split_conditions":[5.95E1,4.4E1,8.5E0,8.5E0,1.015E2,8.45E1,6.5E-1,2.4131194E-1,6.2290423E-2,7.032405E-3,-1.8111213E-1,1.0265746E-1,-1.4219502E-1,-1.926796E-1,-7.593298E-2],"split_indices":[7,19,9,9,19,11,8,0,0,0,0,0,0,0,0],"split_type":[0,0,0,0,0,0,0,0,0,0,0,0,0,0,0],"sum_hessian":[3.517264E2,1.8250418E2,1.6922223E2,1.427395E2,3.9764687E1,6.354043E1,1.0568181E2,1.0005473E2,4.268477E1,2.5180487E1,1.4584198E1,2.3419088E1,4.012134E1,9.650834E1,9.173469E0],"tree_param":{"num_deleted":"0","num_feature":"21","num_nodes":"15","size_leaf_vector":"0"}},{"base_weights":[3.0169932E-2,-5.001598E-1,3.9745963E-1,-5.883902E-1,-2.5411567E-1,5.071352E-1,-6.8018025E-1,9.66636E-1,-6.057984E-1,-4.175039E-1,1.3616043E0,-4.0223238E-1,5.612296E-1,-6.519243E-1,-7.1404076E-1],"categories":[],"categories_nodes":[],"categories_segments":[],"categories_sizes":[],"default_left":[true,true,true,true,true,true,true,false,false,false,false,false,false,false,false],"id":7,"left_children":[1,3,5,7,9,11,13,-1,-1,-1,-1,-1,-1,-1,-1],"loss_changes":[6.6393524E1,3.0277367E0,2.3801716E1,2.7790146E0,9.718272E0,8.991333E0,1.7798424E-2,0E0,0E0,0E0,0E0,0E0,0E0,0E0,0E0],"parents":[2147483647,0,0,1,1,2,2,3,3,4,4,5,5,6,6],"right_children":[2,4,6,8,10,12,14,-1,-1,-1,-1,-1,-1,-1,-1],"split_conditions":[3.5E0,1.035E1,6.85E1,2.05E1,7.25E1,1.295E2,2.3E1,2.899908E-1,-1.8173954E-1,-1.2525117E-1,4.0848133E-1,-1.20669715E-1,1.6836888E-1,-1.9557731E-1,-2.1421224E-1],"split_indices":[9,10,9,11,19,18,11,0,0,0,0,0,0,0,0],"split_type":[0,0,0,0,0,0,0,0,0,0,0,0,0,0,0],"sum_hessian":[3.4085605E2,1.3947215E2,2.013839E2,1.02659065E2,3.6813084E1,1.8278151E2,1.8602379E1,1.1365293E0,1.0152254E2,3.3432278E1,3.3808086E0,1.0262427E1,1.7251909E2,1.0140406E1,8.461972E0],"tree_param":{"num_deleted":"0","num_feature":"21","num_nodes":"15","size_leaf_vector":"0"}},{"base_weights":[3.670068E-2,5.6030244E-1,-2.5785387E-1,8.13372E-1,2.563036E-1,6.197382E-1,-3.2767084E-1,8.923104E-1,5.716594E-1,7.9370236E-1,-4.112168E-1,-6.649497E-1,9.5024246E-1,-1.6558965E-1,-6.039711E-1],"categories":[],"categories_nodes":[],"categories_segments":[],"categories_sizes":[],"default_left":[true,true,true,true,true,true,true,false,false,false,false,false,false,false,false],"id":8,"left_children":[1,3,5,7,9,11,13,-1,-1,-1,-1,-1,-1,-1,-1],"loss_changes":[5.2760986E1,9.475178E0,1.3414199E1,1.2824059E0,2.0070963E1,6.8502936E0,9.081968E0,0E0,0E0,0E0,0E0,0E0,0E0,0E0,0E0],"parents":[2147483647,0,0,1,1,2,2,3,3,4,4,5,5,6,6],"right_children":[2,4,6,8,10,12,14,-1,-1,-1,-1,-1,-1,-1,-1],"split_conditions":[4.1499996E0,1.255E2,1.155E2,3E-1,2.95E1,1.5E-3,3.5E-3,2.6769313E-1,1.7149782E-1,2.3811072E-1,-1.23365045E-1,-1.9948493E-1,2.8507274E-1,-4.9676895E-2,-1.8119134E-1],"split_indices":[10,16,16,10,11,4,3,0,0,0,0,0,0,0,0],"split_type":[0,0,0,0,0,0,0,0,0,0,0,0,0,0,0],"sum_hessian":[3.420945E2,1.2316167E2,2.1893283E2,6.721077E1,5.5950893E1,1.613372E1,2.0279912E2,5.0664722E1,1.654605E1,3.0996572E1,2.495432E1,3.301318E0,1.2832402E1,1.27818924E2,7.498019E1],"tree_param":{"num_deleted":"0","num_feature":"21","num_nodes":"15","size_leaf_vector":"0"}},{"base_weights":[-5.102232E-2,-4.621659E-1,1.9652145E-1,-5.6486326E-1,-2.6971474E-1,4.3695956E-1,-3.1086102E-1,-5.75855E-1,1.8408827E-2,-5.964588E-1,-6.5101646E-2,6.496763E-1,-1.8199058E-1,-5.085561E-1,4.7422037E-1],"categories":[],"categories_nodes":[],"categories_segments":[],"categories_sizes":[],"default_left":[true,true,true,true,true,true,true,false,false,false,false,false,false,false,false],"id":9,"left_children":[1,3,5,7,9,11,13,-1,-1,-1,-1,-1,-1,-1,-1],"loss_changes":[3.6254677E1,2.6458855E0,2.7125109E1,5.596428E-1,3.1142323E0,1.986224E1,1.1095562E1,0E0,0E0,0E0,0E0,0E0,0E0,0E0,0E0],"parents":[2147483647,0,0,1,1,2,2,3,3,4,4,5,5,6,6],"right_children":[2,4,6,8,10,12,14,-1,-1,-1,-1,-1,-1,-1,-1],"split_conditions":[6.5E-1,4.5E-1,4.15E1,7.5000003E-3,1.035E2,1.505E2,1.375E2,-1.7275651E-1,5.5226483E-3,-1.7893764E-1,-1.9530494E-2,1.9490291E-1,-5.4597177E-2,-1.5256685E-1,1.4226611E-1],"split_indices":[8,8,19,3,12,18,18,0,0,0,0,0,0,0,0],"split_type":[0,0,0,0,0,0,0,0,0,0,0,0,0,0,0],"sum_hessian":[3.562202E2,1.3387245E2,2.2234776E2,8.729134E1,4.6581116E1,1.5085886E2,7.148891E1,8.567676E1,1.6145817E0,1.7937286E1,2.8643827E1,1.12273445E2,3.858541E1,5.710821E1,1.4380694E1],"tree_param":{"num_deleted":"0","num_feature":"21","num_nodes":"15","size_leaf_vector":"0"}},{"base_weights":[6.677753E-2,-3.703487E-1,3.060137E-1,-4.0636307E-1,1.8822296E0,4.3211108E-1,-6.486973E-1,-4.528702E-1,2.763238E-1,1.1670831E-1,5.4056317E-1,-6.196058E-1,-6.944163E-1],"categories":[],"categories_nodes":[],"categories_segments":[],"categories_sizes":[],"default_left":[true,true,true,true,false,true,true,false,false,false,false,false,false],"id":10,"left_children":[1,3,5,7,-1,9,11,-1,-1,-1,-1,-1,-1],"loss_changes":[3.397838E1,9.323352E0,2.5279844E1,3.5914402E0,0E0,6.3448715E0,3.2585144E-2,0E0,0E0,0E0,0E0,0E0,0E0],"parents":[2147483647,0,0,1,1,2,2,3,3,5,5,6,6],"right_children":[2,4,6,8,-1,10,12,-1,-1,-1,-1,-1,-1],"split_conditions":[2.5E0,5.3500004E0,6.9E1,1.565E2,5.646689E-1,1.365E2,1.4E1,-1.3586107E-1,8.289714E-2,3.5012495E-2,1.6216895E-1,-1.8588173E-1,-2.083249E-1],"split_indices":[9,8,9,16,0,0,11,0,0,0,0,0,0],"split_type":[0,0,0,0,0,0,0,0,0,0,0,0,0],"sum_hessian":[3.249144E2,1.14925476E2,2.099889E2,1.1311696E2,1.8085215E0,1.8548961E2,2.4499304E1,1.059025E2,7.214463E0,4.7461376E1,1.3802823E2,1.4972258E1,9.527046E0],"tree_param":{"num_deleted":"0","num_feature":"21","num_nodes":"13","size_leaf_vector":"0"}},{"base_weights":[5.180463E-2,7.3484707E-1,-1.7840603E-1,-1.0894192E0,7.694482E-1,-3.4495217E-1,1.1685836E0,7.201204E-1,8.858726E-1,-5.220007E-1,8.037841E-1,1.2494096E0,-6.436348E-1],"categories":[],"categories_nodes":[],"categories_segments":[],"categories_sizes":[],"default_left":[true,true,true,false,true,true,true,false,false,false,false,false,false],"id":11,"left_children":[1,3,5,-1,7,9,11,-1,-1,-1,-1,-1,-1],"loss_changes":[5.1212902E1,5.182255E0,5.464642E1,0E0,4.6271515E-1,4.409069E1,3.9261436E0,0E0,0E0,0E0,0E0,0E0,0E0],"parents":[2147483647,0,0,1,1,2,2,4,4,5,5,6,6],"right_children":[2,4,6,-1,8,10,12,-1,-1,-1,-1,-1,-1],"split_conditions":[1.095E2,2.5E1,7.85E1,-3.268258E-1,4E0,6.85E1,4.5E-3,2.1603613E-1,2.657618E-1,-1.566002E-1,2.4113522E-1,3.7482288E-1,-1.9309045E-1],"split_indices":[17,7,7,0,10,9,3,0,0,0,0,0,0],"split_type":[0,0,0,0,0,0,0,0,0,0,0,0,0],"sum_hessian":[3.256914E2,8.20995E1,2.4359189E2,1.5282066E0,8.05713E1,2.1678757E2,2.6804317E1,5.6593304E1,2.3977995E1,1.8783723E2,2.8950333E1,2.5659872E1,1.1444447E0],"tree_param":{"num_deleted":"0","num_feature":"21","num_nodes":"13","size_leaf_vector":"0"}},{"base_weights":[-1.5524445E-2,-2.2608516E-1,5.939065E-1,-9.827345E-2,-5.277113E-1,-5.883955E-1,7.128429E-1,4.7518723E-2,-6.2403464E-1,-1.3897389E0,-5.133826E-1,-5.698374E-1,-6.1984074E-1,7.384603E-1,1.4524633E-1],"categories":[],"categories_nodes":[],"categories_segments":[],"categories_sizes":[],"default_left":[true,true,true,true,true,true,true,false,false,false,false,false,false,false,false],"id":12,"left_children":[1,3,5,7,9,11,13,-1,-1,-1,-1,-1,-1,-1,-1],"loss_changes":[3.719767E1,8.305553E0,1.0467062E1,1.1598993E1,7.920017E-1,3.9703846E-3,9.833946E-1,0E0,0E0,0E0,0E0,0E0,0E0,0E0,0E0],"parents":[2147483647,0,0,1,1,2,2,3,3,4,4,5,5,6,6],"right_children":[2,4,6,8,10,12,14,-1,-1,-1,-1,-1,-1,-1,-1],"split_conditions":[2.5E-3,1.475E2,9.45E1,1.5E-3,1.32E2,1.065E2,5E-4,1.4255618E-2,-1.872104E-1,-4.169217E-1,-1.540148E-1,-1.7095122E-1,-1.8595223E-1,2.215381E-1,4.35739E-2],"split_indices":[1,17,16,6,0,17,6,0,0,0,0,0,0,0,0],"split_type":[0,0,0,0,0,0,0,0,0,0,0,0,0,0,0],"sum_hessian":[2.8987708E2,2.1544128E2,7.443578E1,1.5132043E2,6.412085E1,6.803613E0,6.763217E1,1.1846924E2,3.2851204E1,1.0483938E0,6.3072453E1,4.27854E0,2.525073E0,6.471154E1,2.9206295E0],"tree_param":{"num_deleted":"0","num_feature":"21","num_nodes":"15","size_leaf_vector":"0"}},{"base_weights":[-5.423848E-2,-3.789791E-1,1.8905601E-1,-2.3185177E-2,-5.47889E-1,-6.0867447E-1,2.3422217E-1,-5.72971E-1,1.325711E-1,-5.719467E-1,1.1086258E0,-5.9413534E-1,-6.541519E-1,1.5078805E-1,6.732526E-1],"categories":[],"categories_nodes":[],"categories_segments":[],"categories_sizes":[],"default_left":[true,true,true,true,true,true,true,false,false,false,false,false,false,false,false],"id":13,"left_children":[1,3,5,7,9,11,13,-1,-1,-1,-1,-1,-1,-1,-1],"loss_changes":[2.2804176E1,7.4294434E0,5.945336E0,3.4078674E0,3.3406925E0,5.846262E-3,5.7204103E0,0E0,0E0,0E0,0E0,0E0,0E0,0E0,0E0],"parents":[2147483647,0,0,1,1,2,2,3,3,4,4,5,5,6,6],"right_children":[2,4,6,8,10,12,14,-1,-1,-1,-1,-1,-1,-1,-1],"split_conditions":[1.345E2,2.5E-3,3.25E0,1.3E1,1.35E-2,1.735E2,1.835E2,-1.718913E-1,3.9771333E-2,-1.7158401E-1,3.3258775E-1,-1.7824061E-1,-1.9624558E-1,4.5236416E-2,2.0197578E-1],"split_indices":[0,3,10,11,4,13,13,0,0,0,0,0,0,0,0],"split_type":[0,0,0,0,0,0,0,0,0,0,0,0,0,0,0],"sum_hessian":[2.8863272E2,1.2362396E2,1.6500874E2,3.979638E1,8.382758E1,8.841906E0,1.5616684E2,8.785494E0,3.1010885E1,8.262758E1,1.2000071E0,6.6999416E0,2.1419642E0,1.3122804E2,2.4938808E1],"tree_param":{"num_deleted":"0","num_feature":"21","num_nodes":"15","size_leaf_vector":"0"}},{"base_weights":[-1.3226651E-2,-1.7004265E-1,5.491668E-1,-3.4102607E-1,6.961321E-1,6.246684E-1,-6.947737E-1,4.6503296E-1,-4.063686E-1,6.380381E-1,8.175271E-1,6.612802E-1,-6.1299896E-1,-6.06354E-1,-8.17038E-1],"categories":[],"categories_nodes":[],"categories_segments":[],"categories_sizes":[],"default_left":[true,true,true,true,true,true,true,false,false,false,false,false,false,false,false],"id":14,"left_children":[1,3,5,7,9,11,13,-1,-1,-1,-1,-1,-1,-1,-1],"loss_changes":[2.4250677E1,3.1844738E1,5.6309834E0,9.458054E0,2.4998665E-1,2.5613117E0,3.708887E-2,0E0,0E0,0E0,0E0,0E0,0E0,0E0,0E0],"parents":[2147483647,0,0,1,1,2,2,3,3,4,4,5,5,6,6],"right_children":[2,4,6,8,10,12,14,-1,-1,-1,-1,-1,-1,-1,-1],"split_conditions":[5.55E1,6.65E1,1.385E2,1E-1,5E-1,1.5E0,3.45E0,1.395099E-1,-1.2191059E-1,1.9141144E-1,2.4525814E-1,1.9838408E-1,-1.838997E-1,-1.8190621E-1,-2.451114E-1],"split_indices":[19,9,0,10,19,9,8,0,0,0,0,0,0,0,0],"split_type":[0,0,0,0,0,0,0,0,0,0,0,0,0,0,0],"sum_hessian":[2.7497504E2,2.1501965E2,5.9955395E1,1.7957202E2,3.5447624E1,5.6524605E1,3.4307907E0,1.3465315E1,1.661067E2,2.397452E1,1.14731045E1,5.4900578E1,1.6240296E0,1.9909596E0,1.439831E0],"tree_param":{"num_deleted":"0","num_feature":"21","num_nodes":"15","size_leaf_vector":"0"}},{"base_weights":[7.6488294E-3,4.156687E-1,-3.5364535E-1,5.148663E-1,-4.1275588E-1,-1.0556588E-1,-4.7519735E-1,6.290005E-1,-6.647791E-2,-5.024268E-2,-7.9689276E-1,-3.898534E-1,7.9750204E-1,-3.3111712E-1,-5.4834586E-1],"categories":[],"categories_nodes":[],"categories_segments":[],"categories_sizes":[],"default_left":[true,true,true,true,true,true,true,false,false,false,false,false,false,false,false],"id":15,"left_children":[1,3,5,7,9,11,13,-1,-1,-1,-1,-1,-1,-1,-1],"loss_changes":[4.0843998E1,1.06929455E1,4.4311504E0,7.7103558E0,1.9376848E0,1.240609E1,1.0394287E0,0E0,0E0,0E0,0E0,0E0,0E0,0E0,0E0],"parents":[2147483647,0,0,1,1,2,2,3,3,4,4,5,5,6,6],"right_children":[2,4,6,8,10,12,14,-1,-1,-1,-1,-1,-1,-1,-1],"split_conditions":[5.85E1,5E-4,1.5E0,1.565E2,1.35E-2,1.265E2,1.365E2,1.8870015E-1,-1.9943373E-2,-1.5072805E-2,-2.3906784E-1,-1.1695602E-1,2.3925062E-1,-9.933514E-2,-1.6450377E-1],"split_indices":[7,6,9,18,2,18,0,0,0,0,0,0,0,0,0],"split_type":[0,0,0,0,0,0,0,0,0,0,0,0,0,0,0],"sum_hessian":[2.7706775E2,1.3011977E2,1.4694798E2,1.16205086E2,1.3914683E1,4.832332E1,9.8624664E1,9.7134796E1,1.9070292E1,7.1588326E0,6.7558503E0,3.6753307E1,1.1570011E1,3.3210373E1,6.541429E1],"tree_param":{"num_deleted":"0","num_feature":"21","num_nodes":"15","size_leaf_vector":"0"}},{"base_weights":[4.9962096E-2,1.7824355E-1,-5.7162136E-1,3.1159827E-1,-3.9180866E-1,-6.2098837E-1,1.218024E0,3.5884193E-1,-8.9882267E-1,-4.7229248E-1,5.9278077E-1,-6.026761E-1,-7.0210505E-1],"categories":[],"categories_nodes":[],"categories_segments":[],"categories_sizes":[],"default_left":[true,true,true,true,true,true,false,false,false,false,false,false,false],"id":16,"left_children":[1,3,5,7,9,11,-1,-1,-1,-1,-1,-1,-1],"loss_changes":[2.1267633E1,1.6807198E1,4.0312567E0,1.0246141E1,3.3215275E0,6.595802E-2,0E0,0E0,0E0,0E0,0E0,0E0,0E0],"parents":[2147483647,0,0,1,1,2,2,3,3,4,4,5,5],"right_children":[2,4,6,8,10,12,-1,-1,-1,-1,-1,-1,-1],"split_conditions":[2.5E-3,2.5E-3,3.15E-1,2.4500001E-2,2.5E0,1.195E2,3.6540723E-1,1.0765258E-1,-2.6964682E-1,-1.4168775E-1,1.7783424E-1,-1.8080284E-1,-2.1063152E-1],"split_indices":[1,4,2,2,15,12,0,0,0,0,0,0,0],"split_type":[0,0,0,0,0,0,0,0,0,0,0,0,0],"sum_hessian":[2.6672018E2,2.2109163E2,4.5628555E1,1.791762E2,4.1915447E1,4.4403687E1,1.2248666E0,1.7244551E2,6.7306814E0,3.8748043E1,3.1674025E0,3.6225662E1,8.178028E0],"tree_param":{"num_deleted":"0","num_feature":"21","num_nodes":"13","size_leaf_vector":"0"}},{"base_weights":[5.5185063E-3,-1.01211816E-1,1.1285142E0,-2.6282448E-1,5.766295E-1,1.2534077E0,5.6443816E-1,-4.61641E-1,6.814606E-1,6.0627806E-1,-6.648653E-1,1.1914942E0,1.4913268E0,6.264302E-1,4.4319835E-1],"categories":[],"categories_nodes":[],"categories_segments":[],"categories_sizes":[],"default_left":[true,true,true,true,true,true,true,false,false,false,false,false,false,false,false],"id":17,"left_children":[1,3,5,7,9,11,13,-1,-1,-1,-1,-1,-1,-1,-1],"loss_changes":[2.9474283E1,2.4600874E1,1.5036068E0,3.4043472E1,1.5913792E0,2.573986E-1,2.907908E-2,0E0,0E0,0E0,0E0,0E0,0E0,0E0,0E0],"parents":[2147483647,0,0,1,1,2,2,3,3,4,4,5,5,6,6],"right_children":[2,4,6,8,10,12,14,-1,-1,-1,-1,-1,-1,-1,-1],"split_conditions":[8.05E1,1.5E-3,4.25E1,6.85E1,1.315E2,1.505E2,1.37E2,-1.3849232E-1,2.044382E-1,1.8188342E-1,-1.994596E-1,3.5744828E-1,4.4739807E-1,1.8792908E-1,1.3295951E-1],"split_indices":[7,6,9,9,16,0,0,0,0,0,0,0,0,0,0],"split_type":[0,0,0,0,0,0,0,0,0,0,0,0,0,0,0],"sum_hessian":[2.4591066E2,2.245676E2,2.1343067E1,1.8133357E2,4.3234013E1,1.7474083E1,3.8689835E0,1.4979472E2,3.1538853E1,4.222561E1,1.0084031E0,1.3865799E1,3.6082847E0,2.5600064E0,1.308977E0],"tree_param":{"num_deleted":"0","num_feature":"21","num_nodes":"15","size_leaf_vector":"0"}},{"base_weights":[-2.0414522E-2,2.5722465E-1,-3.2981095E-1,6.0746473E-1,1.0318758E-1,-1.7396003E-1,-4.964563E-1,6.689024E-1,-5.4627985E-1,2.3537467E-1,-1.9291738E-1,-4.6167096E-1,1.8517625E-1,1.1621826E-1,-5.2257437E-1],"categories":[],"categories_nodes":[],"categories_segments":[],"categories_sizes":[],"default_left":[true,true,true,true,true,true,true,false,false,false,false,false,false,false,false],"id":18,"left_children":[1,3,5,7,9,11,13,-1,-1,-1,-1,-1,-1,-1,-1],"loss_changes":[2.2028385E1,7.2916956E0,3.1499643E0,2.9264278E0,3.674251E0,6.4757047E0,9.3790436E-1,0E0,0E0,0E0,0E0,0E0,0E0,0E0,0E0],"parents":[2147483647,0,0,1,1,2,2,3,3,4,4,5,5,6,6],"right_children":[2,4,6,8,10,12,14,-1,-1,-1,-1,-1,-1,-1,-1],"split_conditions":[5.85E1,1.305E2,2.05E1,1.25E1,5.5E0,1.285E2,5.95E1,2.0067073E-1,-1.6388395E-1,7.061241E-2,-5.7875216E-2,-1.385013E-1,5.5552877E-2,3.486548E-2,-1.5677232E-1],"split_indices":[7,0,9,14,14,16,7,0,0,0,0,0,0,0,0],"split_type":[0,0,0,0,0,0,0,0,0,0,0,0,0,0,0],"sum_hessian":[2.5644052E2,1.3515668E2,1.21283844E2,4.128511E1,9.387157E1,6.267169E1,5.861215E1,3.9197803E1,2.0873094E0,6.489926E1,2.897231E1,3.4795975E1,2.787572E1,2.3964531E0,5.6215694E1],"tree_param":{"num_deleted":"0","num_feature":"21","num_nodes":"15","size_leaf_vector":"0"}},{"base_weights":[-3.0975252E-2,-3.7559357E-1,1.9770081E-1,-4.7630802E-1,3.4272224E-1,3.042492E-1,-5.833964E-1,-5.6858236E-1,-9.8709045E-3,-6.1833453E-1,7.390787E-1,3.936146E-1,-8.500911E-1,-5.565551E-1,-6.1021E-1],"categories":[],"categories_nodes":[],"categories_segments":[],"categories_sizes":[],"default_left":[true,true,true,true,true,true,true,false,false,false,false,false,false,false,false],"id":19,"left_children":[1,3,5,7,9,11,13,-1,-1,-1,-1,-1,-1,-1,-1],"loss_changes":[2.0678593E1,7.5720243E0,1.3127272E1,3.9508858E0,4.9026585E0,1.4318294E1,1.36265755E-2,0E0,0E0,0E0,0E0,0E0,0E0,0E0,0E0],"parents":[2147483647,0,0,1,1,2,2,3,3,4,4,5,5,6,6],"right_children":[2,4,6,8,10,12,14,-1,-1,-1,-1,-1,-1,-1,-1],"split_conditions":[6.5E0,1.565E2,6.85E1,1.05E-2,9.6E0,7.95E1,4.25E0,-1.7057471E-1,-2.9612714E-3,-1.8550037E-1,2.2172362E-1,1.1808438E-1,-2.5502735E-1,-1.6696653E-1,-1.83063E-1],"split_indices":[9,18,9,2,10,7,10,0,0,0,0,0,0,0,0],"split_type":[0,0,0,0,0,0,0,0,0,0,0,0,0,0,0],"sum_hessian":[2.623988E2,1.0466582E2,1.5773299E2,9.179528E1,1.2870537E1,1.3879953E2,1.893345E1,7.663477E1,1.5160507E1,3.758119E0,9.112418E0,1.2882622E2,9.97332E0,9.461843E0,9.471609E0],"tree_param":{"num_deleted":"0","num_feature":"21","num_nodes":"15","size_leaf_vector":"0"}},{"base_weights":[8.095058E-2,7.0799583E-1,-1.00046165E-1,6.754124E-1,1.649294E0,-2.1808423E-1,7.9710686E-1,1.7603317E-1,6.9155425E-1,6.2695557E-1,-3.065023E-1,3.7925154E-1,9.8121315E-1],"categories":[],"categories_nodes":[],"categories_segments":[],"categories_sizes":[],"default_left":[true,true,true,true,false,true,true,false,false,false,false,false,false],"id":20,"left_children":[1,3,5,7,-1,9,11,-1,-1,-1,-1,-1,-1],"loss_changes":[2.5898615E1,1.5677185E0,1.8752552E1,3.9824295E-1,0E0,1.1692541E1,1.5839472E0,0E0,0E0,0E0,0E0,0E0,0E0],"parents":[2147483647,0,0,1,1,2,2,3,3,5,5,6,6],"right_children":[2,4,6,8,-1,10,12,-1,-1,-1,-1,-1,-1],"split_conditions":[1.085E2,2.5E0,7.85E1,1.15E2,4.9478823E-1,1.095E2,8.05E1,5.2809954E-2,2.0746629E-1,1.8808667E-1,-9.19507E-2,1.1377547E-1,2.9436395E-1],"split_indices":[16,15,7,0,0,17,7,0,0,0,0,0,0],"split_type":[0,0,0,0,0,0,0,0,0,0,0,0,0],"sum_hessian":[2.2819539E2,5.111445E1,1.7708095E2,4.9404297E1,1.7101514E0,1.5649142E2,2.0589516E1,1.5469356E0,4.7857365E1,1.482303E1,1.416684E2,6.2971783E0,1.4292337E1],"tree_param":{"num_deleted":"0","num_feature":"21","num_nodes":"13","size_leaf_vector":"0"}},{"base_weights":[1.7396884E-2,1.5303427E-1,-2.349657E-1,2.6266235E-1,-4.6993738E-1,6.385983E-2,-3.453554E-1,4.0054283E-1,-1.9775553E-1,-1.2691338E-1,-5.155466E-1,-7.946646E-2,1.0045388E0,-3.841197E-1,8.049982E-1],"categories":[],"categories_nodes":[],"categories_segments":[],"categories_sizes":[],"default_left":[true,true,true,true,true,true,true,false,false,false,false,false,false,false,false],"id":21,"left_children":[1,3,5,7,9,11,13,-1,-1,-1,-1,-1,-1,-1,-1],"loss_changes":[7.5992713E0,9.861679E0,2.5601268E0,7.795023E0,3.380599E-1,2.8226647E0,2.5272284E0,0E0,0E0,0E0,0E0,0E0,0E0,0E0,0E0],"parents":[2147483647,0,0,1,1,2,2,3,3,4,4,5,5,6,6],"right_children":[2,4,6,8,10,12,14,-1,-1,-1,-1,-1,-1,-1,-1],"split_conditions":[1.35E1,1.5E-3,1.365E2,1.495E2,5.35E1,1.385E2,1.585E2,1.2016285E-1,-5.932666E-2,-3.8074017E-2,-1.54664E-1,-2.383994E-2,3.0136165E-1,-1.1523591E-1,2.4149947E-1],"split_indices":[9,6,0,17,12,18,17,0,0,0,0,0,0,0,0],"split_type":[0,0,0,0,0,0,0,0,0,0,0,0,0,0,0],"sum_hessian":[2.2200746E2,1.4439789E2,7.760957E1,1.22789825E2,2.1608065E1,2.0935919E1,5.6673656E1,9.449237E1,2.8297455E1,2.5358815E0,1.9072184E1,1.8167788E1,2.7681303E0,5.482614E1,1.8475164E0],"tree_param":{"num_deleted":"0","num_feature":"21","num_nodes":"15","size_leaf_vector":"0"}},{"base_weights":[2.1216953E-2,-2.647037E-1,2.6154774E-1,-2.9690182E-1,9.304306E-1,3.054496E-1,-7.292149E-1,-6.240669E-2,-4.4552013E-1,6.2954354E-1,1.3750285E0,-5.580511E-1,3.368219E-1,-6.007808E-1,-7.6960444E-1],"categories":[],"categories_nodes":[],"categories_segments":[],"categories_sizes":[],"default_left":[true,true,true,true,true,true,true,false,false,false,false,false,false,false,false],"id":22,"left_children":[1,3,5,7,9,11,13,-1,-1,-1,-1,-1,-1,-1,-1],"loss_changes":[1.5584334E1,3.9856272E0,5.3596687E0,3.5148773E0,3.6348653E-1,3.1964293E0,2.7121782E-2,0E0,0E0,0E0,0E0,0E0,0E0,0E0,0E0],"parents":[2147483647,0,0,1,1,2,2,3,3,4,4,5,5,6,6],"right_children":[2,4,6,8,10,12,14,-1,-1,-1,-1,-1,-1,-1,-1],"split_conditions":[1.365E2,4.3500004E0,7.95E1,6.5E-1,1.5E0,2.95E0,4.65E0,-1.8722007E-2,-1.3365604E-1,1.8886307E-1,4.1250858E-1,-1.6741534E-1,1.0104658E-1,-1.8023424E-1,-2.3088135E-1],"split_indices":[0,8,7,8,15,10,10,0,0,0,0,0,0,0,0],"split_type":[0,0,0,0,0,0,0,0,0,0,0,0,0,0,0],"sum_hessian":[2.267949E2,1.03573685E2,1.2322123E2,1.0085651E2,2.717176E0,1.1799283E2,5.2283998E0,3.9124504E1,6.1732002E1,1.6204896E0,1.0966862E0,4.1365757E0,1.13856255E2,1.2508482E0,3.977552E0],"tree_param":{"num_deleted":"0","num_feature":"21","num_nodes":"15","size_leaf_vector":"0"}},{"base_weights":[-1.3407246E-2,5.442239E-1,-1.8654591E-1,-1.1157103E0,6.066217E-1,-4.0928945E-1,3.7773493E-1,6.249047E-1,1.478608E-1,-4.6982282E-1,5.921561E-1,1.3432786E-1,8.7819254E-1],"categories":[],"categories_nodes":[],"categories_segments":[],"categories_sizes":[],"default_left":[true,true,true,false,true,true,true,false,false,false,false,false,false],"id":23,"left_children":[1,3,5,-1,7,9,11,-1,-1,-1,-1,-1,-1],"loss_changes":[1.8614012E1,4.731208E0,1.8491226E1,0E0,3.6925125E-1,6.3943253E0,5.0720415E0,0E0,0E0,0E0,0E0,0E0,0E0],"parents":[2147483647,0,0,1,1,2,2,4,4,5,5,6,6],"right_children":[2,4,6,-1,8,10,12,-1,-1,-1,-1,-1,-1],"split_conditions":[1.095E2,2.65E1,7.05E1,-3.347131E-1,1.235E2,6.9E1,1.495E2,1.8747142E-1,4.435824E-2,-1.4094685E-1,1.7764685E-1,4.0298358E-2,2.6345778E-1],"split_indices":[17,7,7,0,18,9,17,0,0,0,0,0,0],"split_type":[0,0,0,0,0,0,0,0,0,0,0,0,0],"sum_hessian":[1.927964E2,4.5678555E1,1.4711784E2,1.6548722E0,4.402368E1,1.0548057E2,4.1637276E1,4.2336445E1,1.6872371E0,9.9468124E1,6.01245E0,2.8012745E1,1.3624529E1],"tree_param":{"num_deleted":"0","num_feature":"21","num_nodes":"13","size_leaf_vector":"0"}},{"base_weights":[-6.8936325E-3,-1.5595384E-1,5.575194E-1,-1.0156223E-1,-5.4772776E-1,6.142385E-1,-3.0719334E-1,-4.36608E-2,-5.0824946E-1,-1.8711181E-1,-6.705458E-1,6.4527166E-1,-4.159061E-2,-5.3336275E-1,5.8438458E-2],"categories":[],"categories_nodes":[],"categories_segments":[],"categories_sizes":[],"default_left":[true,true,true,true,true,true,true,false,false,false,false,false,false,false,false],"id":24,"left_children":[1,3,5,7,9,11,13,-1,-1,-1,-1,-1,-1,-1,-1],"loss_changes":[1.7864971E1,3.579565E0,2.17585E0,3.47338E0,9.069977E-1,8.4733105E-1,2.2582483E-1,0E0,0E0,0E0,0E0,0E0,0E0,0E0,0E0],"parents":[2147483647,0,0,1,1,2,2,3,3,4,4,5,5,6,6],"right_children":[2,4,6,8,10,12,14,-1,-1,-1,-1,-1,-1,-1,-1],"split_conditions":[2.5E-3,1.5E-3,1.5E-3,6.05E1,1.285E2,2.45E1,1.12E2,-1.3098241E-2,-1.5247485E-1,-5.6133546E-2,-2.0116375E-1,1.935815E-1,-1.2477183E-2,-1.6000883E-1,1.7531538E-2],"split_indices":[1,6,6,9,0,9,18,0,0,0,0,0,0,0,0],"split_type":[0,0,0,0,0,0,0,0,0,0,0,0,0,0,0],"sum_hessian":[2.1234576E2,1.6798207E2,4.4363686E1,1.4750354E2,2.047853E1,4.1632862E1,2.7308247E0,1.2912025E2,1.8383287E1,5.2026405E0,1.5275889E1,3.9751842E1,1.8810182E0,1.687182E0,1.0436428E0],"tree_param":{"num_deleted":"0","num_feature":"21","num_nodes":"15","size_leaf_vector":"0"}},{"base_weights":[-6.951984E-2,-5.797186E-1,5.2061155E-2,-6.1960727E-1,8.701581E-1,1.4541222E-1,-5.176048E-1,-1.0552452E0,-5.713539E-1,9.019085E-2,5.6612176E-1,-6.036008E-1,7.511873E-1],"categories":[],"categories_nodes":[],"categories_segments":[],"categories_sizes":[],"default_left":[true,true,true,true,false,true,true,false,false,false,false,false,false],"id":25,"left_children":[1,3,5,7,-1,9,11,-1,-1,-1,-1,-1,-1],"loss_changes":[1.3393449E1,2.40308E0,9.27258E0,8.500681E-1,0E0,3.4805365E0,2.6787014E0,0E0,0E0,0E0,0E0,0E0,0E0],"parents":[2147483647,0,0,1,1,2,2,3,3,5,5,6,6],"right_children":[2,4,6,8,-1,10,12,-1,-1,-1,-1,-1,-1],"split_conditions":[1.295E2,1.35E2,2.5E-3,5E-1,2.6104742E-1,1.055E2,3.215E-1,-3.1657356E-1,-1.7140618E-1,2.7057257E-2,1.6983654E-1,-1.8108025E-1,2.253562E-1],"split_indices":[18,17,1,14,0,11,2,0,0,0,0,0,0],"split_type":[0,0,0,0,0,0,0,0,0,0,0,0,0],"sum_hessian":[2.1591727E2,4.1551563E1,1.7436569E2,4.0439014E1,1.1125492E0,1.4981546E2,2.4550234E1,4.0325556E0,3.640646E1,1.3243266E2,1.7382807E1,2.2991892E1,1.5583404E0],"tree_param":{"num_deleted":"0","num_feature":"21","num_nodes":"13","size_leaf_vector":"0"}},{"base_weights":[-5.500051E-2,-1.9914757E-1,5.9274584E-1,-3.1599265E-1,5.5973023E-1,5.385319E-1,8.2271934E-1,-4.295087E-1,4.2267102E-1,3.6398244E-1,5.986733E-1,3.3825743E-1,5.5440205E-1,8.982158E-1,6.639905E-1],"categories":[],"categories_nodes":[],"categories_segments":[],"categories_sizes":[],"default_left":[true,true,true,true,true,true,true,false,false,false,false,false,false,false,false],"id":26,"left_children":[1,3,5,7,9,11,13,-1,-1,-1,-1,-1,-1,-1,-1],"loss_changes":[1.5747505E1,1.223268E1,3.8276196E-1,1.0024166E1,1.4031649E-1,7.89628E-2,7.018256E-2,0E0,0E0,0E0,0E0,0E0,0E0,0E0,0E0],"parents":[2147483647,0,0,1,1,2,2,3,3,4,4,5,5,6,6],"right_children":[2,4,6,8,10,12,14,-1,-1,-1,-1,-1,-1,-1,-1],"split_conditions":[1.5E-3,6.85E1,3.565E-1,8.5E-3,7.4E1,9.3E1,1.695E2,-1.288526E-1,1.2680131E-1,1.0919473E-1,1.79602E-1,1.01477236E-1,1.6632062E-1,2.6946473E-1,1.9919716E-1],"split_indices":[6,9,2,4,9,11,13,0,0,0,0,0,0,0,0],"split_type":[0,0,0,0,0,0,0,0,0,0,0,0,0,0,0],"sum_hessian":[1.686557E2,1.3795558E2,3.0700119E1,1.1954858E2,1.8407001E1,2.4843506E1,5.8566127E0,1.0362391E2,1.5924667E1,3.054337E0,1.5352665E1,1.8241081E0,2.3019398E1,3.968885E0,1.8877275E0],"tree_param":{"num_deleted":"0","num_feature":"21","num_nodes":"15","size_leaf_vector":"0"}},{"base_weights":[8.583882E-3,-4.2137975E-1,1.3794209E-1,-5.1537526E-1,3.3664155E-1,-4.7012788E-1,2.4763592E-1,-5.352096E-1,-3.012909E-1,-4.99172E-1,1.1114123E0,4.1689658E-1,-5.6541747E-1,4.091011E-1,5.549166E-2],"categories":[],"categories_nodes":[],"categories_segments":[],"categories_sizes":[],"default_left":[true,true,true,true,true,true,true,false,false,false,false,false,false,false,false],"id":27,"left_children":[1,3,5,7,9,11,13,-1,-1,-1,-1,-1,-1,-1,-1],"loss_changes":[1.0168751E1,3.0127482E0,9.37449E0,1.5973854E-1,3.020758E0,1.8154883E0,3.6939425E0,0E0,0E0,0E0,0E0,0E0,0E0,0E0,0E0],"parents":[2147483647,0,0,1,1,2,2,3,3,4,4,5,5,6,6],"right_children":[2,4,6,8,10,12,14,-1,-1,-1,-1,-1,-1,-1,-1],"split_conditions":[4.5E-1,9.299999E0,1.095E2,8.05E0,1.37E2,1.175E2,1.415E2,-1.6056289E-1,-9.038727E-2,-1.497516E-1,3.334237E-1,1.2506898E-1,-1.6962525E-1,1.2273034E-1,1.6647499E-2],"split_indices":[8,10,17,10,0,0,17,0,0,0,0,0,0,0,0],"split_type":[0,0,0,0,0,0,0,0,0,0,0,0,0,0,0],"sum_hessian":[1.8282767E2,4.2283813E1,1.4054385E2,3.761901E1,4.664803E0,2.1478924E1,1.1906493E2,3.4429245E1,3.1897688E0,2.244001E0,2.4208019E0,2.0835674E0,1.9395357E1,6.4697495E1,5.4367443E1],"tree_param":{"num_deleted":"0","num_feature":"21","num_nodes":"15","size_leaf_vector":"0"}},{"base_weights":[2.6761863E-2,-2.2892356E-1,1.8262616E-1,-4.15211E-1,-1.0747721E-1,2.3754692E-1,-5.645037E-1,-1.4851815E-1,-6.8025637E-1,-2.6656678E-1,2.5478238E-1,2.7360064E-1,-5.7283986E-1,-5.473976E-1,-6.2541395E-1],"categories":[],"categories_nodes":[],"categories_segments":[],"categories_sizes":[],"default_left":[true,true,true,true,true,true,true,false,false,false,false,false,false,false,false],"id":28,"left_children":[1,3,5,7,9,11,13,-1,-1,-1,-1,-1,-1,-1,-1],"loss_changes":[7.821093E0,1.68154E0,5.0030084E0,2.0733852E0,2.5930395E0,3.318449E0,8.69894E-3,0E0,0E0,0E0,0E0,0E0,0E0,0E0,0E0],"parents":[2147483647,0,0,1,1,2,2,3,3,4,4,5,5,6,6],"right_children":[2,4,6,8,10,12,14,-1,-1,-1,-1,-1,-1,-1,-1],"split_conditions":[1.375E2,1.225E2,5.5E-3,6.75E0,9.85E0,6.9E1,1.545E2,-4.4555444E-2,-2.0407692E-1,-7.997004E-2,7.643472E-2,8.208019E-2,-1.7185196E-1,-1.6421929E-1,-1.876242E-1],"split_indices":[17,17,1,10,10,9,17,0,0,0,0,0,0,0,0],"split_type":[0,0,0,0,0,0,0,0,0,0,0,0,0,0,0],"sum_hessian":[1.9625233E2,7.432573E1,1.2192661E2,2.933246E1,4.4993267E1,1.1357764E2,8.348978E0,1.462079E1,1.471167E1,3.1263582E1,1.3729685E1,1.0873985E2,4.837783E0,6.518353E0,1.8306249E0],"tree_param":{"num_deleted":"0","num_feature":"21","num_nodes":"15","size_leaf_vector":"0"}},{"base_weights":[3.7321113E-2,3.8411328E-1,-1.342225E-1,4.9056107E-1,-3.5423967E-1,-2.8989956E-1,5.967938E-1,5.298883E-1,-6.0292566E-1,-5.943883E-1,5.602098E-1,-4.4038102E-1,1.6982414E-1,6.24799E-1,5.753625E-1],"categories":[],"categories_nodes":[],"categories_segments":[],"categories_sizes":[],"default_left":[true,true,true,true,true,true,true,false,false,false,false,false,false,false,false],"id":29,"left_children":[1,3,5,7,9,11,13,-1,-1,-1,-1,-1,-1,-1,-1],"loss_changes":[1.0128408E1,4.428549E0,1.2963053E1,2.1177626E0,1.5591325E0,6.4966426E0,1.2002945E-2,0E0,0E0,0E0,0E0,0E0,0E0,0E0,0E0],"parents":[2147483647,0,0,1,1,2,2,3,3,4,4,5,5,6,6],"right_children":[2,4,6,8,10,12,14,-1,-1,-1,-1,-1,-1,-1,-1],"split_conditions":[1.255E2,7.85E1,6.85E1,6.5E0,6.9E1,1.475E2,7.45E1,1.5896648E-1,-1.808777E-1,-1.783165E-1,1.6806296E-1,-1.321143E-1,5.0947245E-2,1.8743971E-1,1.7260876E-1],"split_indices":[18,12,9,9,9,0,9,0,0,0,0,0,0,0,0],"split_type":[0,0,0,0,0,0,0,0,0,0,0,0,0,0,0],"sum_hessian":[1.7025404E2,5.63457E1,1.1390834E2,4.924595E1,7.0997505E0,9.390941E1,1.999893E1,4.7536304E1,1.7096422E0,5.62305E0,1.4767005E0,7.07506E1,2.3158808E1,8.669769E0,1.1329161E1],"tree_param":{"num_deleted":"0","num_feature":"21","num_nodes":"15","size_leaf_vector":"0"}},{"base_weights":[4.850761E-2,-1.8284015E-1,2.4941401E-1,-2.9589525E-1,4.276464E-1,-5.268452E-1,3.4405014E-1,-2.4929786E-1,-7.505349E-1,6.1969924E-1,-5.890109E-1,-6.088395E-1,5.9427254E-2,4.9806756E-1,1.7358718E-2],"categories":[],"categories_nodes":[],"categories_segments":[],"categories_sizes":[],"default_left":[true,true,true,true,true,true,true,false,false,false,false,false,false,false,false],"id":30,"left_children":[1,3,5,7,9,11,13,-1,-1,-1,-1,-1,-1,-1,-1],"loss_changes":[7.936596E0,5.4776707E0,6.7137485E0,1.4186368E0,2.4213173E0,4.7739244E-1,4.098733E0,0E0,0E0,0E0,0E0,0E0,0E0,0E0,0E0],"parents":[2147483647,0,0,1,1,2,2,3,3,4,4,5,5,6,6],"right_children":[2,4,6,8,10,12,14,-1,-1,-1,-1,-1,-1,-1,-1],"split_conditions":[3.5E-3,2.5E-3,1.06E2,1.215E-1,2E-3,1.315E2,1.475E2,-7.478936E-2,-2.2516048E-1,1.8590978E-1,-1.7670327E-1,-1.8265186E-1,1.7828178E-2,1.4942028E-1,5.207616E-3],"split_indices":[3,1,16,2,6,11,17,0,0,0,0,0,0,0,0],"split_type":[0,0,0,0,0,0,0,0,0,0,0,0,0,0,0],"sum_hessian":[1.7075569E2,7.9365135E1,9.139055E1,6.696415E1,1.240099E1,9.9309845E0,8.1459564E1,6.0738842E1,6.2253065E0,1.0430587E1,1.9704024E0,8.712482E0,1.2185019E0,5.536021E1,2.6099358E1],"tree_param":{"num_deleted":"0","num_feature":"21","num_nodes":"15","size_leaf_vector":"0"}},{"base_weights":[-5.4025415E-2,-1.6787344E-1,3.6499286E-1,9.206563E-3,-3.793975E-1,4.163239E-1,-6.375689E-1,2.5610903E-1,-3.0372643E-1,-4.519904E-1,2.3327401E-1,4.676575E-1,-5.1871276E-1],"categories":[],"categories_nodes":[],"categories_segments":[],"categories_sizes":[],"default_left":[true,true,true,true,true,true,false,false,false,false,false,false,false],"id":31,"left_children":[1,3,5,7,9,11,-1,-1,-1,-1,-1,-1,-1],"loss_changes":[8.323356E0,5.1390643E0,1.9183974E0,5.7701087E0,2.7805996E0,1.7021284E0,0E0,0E0,0E0,0E0,0E0,0E0,0E0],"parents":[2147483647,0,0,1,1,2,2,3,3,4,4,5,5],"right_children":[2,4,6,8,10,12,-1,-1,-1,-1,-1,-1,-1],"split_conditions":[1.535E2,6.5E-1,1.45E0,1.295E2,1.475E2,1.635E2,-1.9127068E-1,7.683271E-2,-9.111793E-2,-1.3559712E-1,6.998221E-2,1.4029726E-1,-1.5561384E-1],"split_indices":[18,8,8,12,17,17,0,0,0,0,0,0,0],"split_type":[0,0,0,0,0,0,0,0,0,0,0,0,0],"sum_hessian":[1.7447774E2,1.372002E2,3.7277542E1,7.46805E1,6.25197E1,3.5461895E1,1.8156456E0,4.1744392E1,3.29361E1,5.589673E1,6.6229677E0,3.3616356E1,1.845541E0],"tree_param":{"num_deleted":"0","num_feature":"21","num_nodes":"13","size_leaf_vector":"0"}},{"base_weights":[-3.3840856E-3,4.1863027E-1,-1.1428786E-1,5.2375764E-1,-3.3150252E-2,-2.3352233E-1,5.4728067E-1,3.50986E-1,5.744811E-1,-9.466687E-1,5.445431E-1,-3.0384573E-1,5.5687386E-1,4.9432677E-1,5.844325E-1],"categories":[],"categories_nodes":[],"categories_segments":[],"categories_sizes":[],"default_left":[true,true,true,true,true,true,true,false,false,false,false,false,false,false,false],"id":32,"left_children":[1,3,5,7,9,11,13,-1,-1,-1,-1,-1,-1,-1,-1],"loss_changes":[6.5476036E0,1.3827314E0,8.738809E0,2.0697641E-1,2.9002917E0,5.217395E0,3.328228E-2,0E0,0E0,0E0,0E0,0E0,0E0,0E0,0E0],"parents":[2147483647,0,0,1,1,2,2,3,3,4,4,5,5,6,6],"right_children":[2,4,6,8,10,12,14,-1,-1,-1,-1,-1,-1,-1,-1],"split_conditions":[1.095E2,1.945E2,6.85E1,3.8E1,9.95E1,2.75E-2,1.345E2,1.0529581E-1,1.7234434E-1,-2.840006E-1,1.6336294E-1,-9.1153726E-2,1.6706216E-1,1.4829804E-1,1.7532974E-1],"split_indices":[17,13,9,19,19,2,0,0,0,0,0,0,0,0,0],"split_type":[0,0,0,0,0,0,0,0,0,0,0,0,0,0,0],"sum_hessian":[1.3989714E2,2.9113518E1,1.1078362E2,2.3617767E1,5.4957504E0,9.3866135E1,1.6917488E1,5.3601904E0,1.8257576E1,2.129046E0,3.3667042E0,8.619698E1,7.6691494E0,6.975306E0,9.9421835E0],"tree_param":{"num_deleted":"0","num_feature":"21","num_nodes":"15","size_leaf_vector":"0"}},{"base_weights":[-2.6210861E-2,-6.35611E-1,2.7689938E-2,-1.037834E0,-5.05288E-1,-3.8380697E-1,1.3663614E-1,-9.8226815E-1,-1.0744094E0,-3.9036942E-1,-5.3339875E-1,-4.9362147E-1,-1.3287763E-1,5.8392245E-1,6.747282E-2],"categories":[],"categories_nodes":[],"categories_segments":[],"categories_sizes":[],"default_left":[true,true,true,true,true,true,true,false,false,false,false,false,false,false,false],"id":33,"left_children":[1,3,5,7,9,11,13,-1,-1,-1,-1,-1,-1,-1,-1],"loss_changes":[5.516663E0,7.1540356E-1,6.9175024E0,6.787777E-3,3.3299446E-2,8.9006233E-1,3.774204E0,0E0,0E0,0E0,0E0,0E0,0E0,0E0,0E0],"parents":[2147483647,0,0,1,1,2,2,3,3,4,4,5,5,6,6],"right_children":[2,4,6,8,10,12,14,-1,-1,-1,-1,-1,-1,-1,-1],"split_conditions":[1.055E2,1.3499999E0,4.5E-1,1E-2,3.9999997E-3,2.5E-3,1.485E2,-2.9468045E-1,-3.2232282E-1,-1.17110826E-1,-1.6001964E-1,-1.4808644E-1,-3.9863292E-2,1.7517674E-1,2.0241847E-2],"split_indices":[16,8,8,3,4,3,13,0,0,0,0,0,0,0,0],"split_type":[0,0,0,0,0,0,0,0,0,0,0,0,0,0,0],"sum_hessian":[1.6794948E2,1.36478195E1,1.5430167E2,3.3398516E0,1.0307968E1,3.2300518E1,1.2200115E2,1.3257493E0,2.0141025E0,2.025911E0,8.282057E0,2.2467875E1,9.832643E0,1.6338484E1,1.0566267E2],"tree_param":{"num_deleted":"0","num_feature":"21","num_nodes":"15","size_leaf_vector":"0"}},{"base_weights":[-2.1292495E-2,-5.7443273E-1,6.661787E-2,-4.946363E-1,-1.287968E0,1.2053144E-1,-6.939162E-1,-5.5595624E-1,4.9557477E-1,-8.556583E-2,2.888123E-1,-5.4934824E-1,-7.147318E-1],"categories":[],"categories_nodes":[],"categories_segments":[],"categories_sizes":[],"default_left":[true,true,true,true,false,true,true,false,false,false,false,false,false],"id":34,"left_children":[1,3,5,7,-1,9,11,-1,-1,-1,-1,-1,-1],"loss_changes":[8.443958E0,1.3558688E0,6.143707E0,1.3004947E0,0E0,4.852618E0,2.9848099E-2,0E0,0E0,0E0,0E0,0E0,0E0],"parents":[2147483647,0,0,1,1,2,2,3,3,5,5,6,6],"right_children":[2,4,6,8,-1,10,12,-1,-1,-1,-1,-1,-1],"split_conditions":[1.225E2,4.3E1,7.95E1,1.75E1,-3.8639042E-1,5.95E1,1.385E2,-1.6678688E-1,1.4867243E-1,-2.566975E-2,8.6643696E-2,-1.6480447E-1,-2.1441956E-1],"split_indices":[17,9,7,9,0,7,17,0,0,0,0,0,0],"split_type":[0,0,0,0,0,0,0,0,0,0,0,0,0],"sum_hessian":[1.7364838E2,2.381324E1,1.4983514E2,2.1418009E1,2.3952308E0,1.3991658E2,9.91856E0,2.016902E1,1.2489893E0,6.2891716E1,7.7024864E1,1.2483766E0,8.670184E0],"tree_param":{"num_deleted":"0","num_feature":"21","num_nodes":"13","size_leaf_vector":"0"}},{"base_weights":[-9.141081E-2,2.8496408E-1,-2.4888828E-1,2.0766213E0,2.0637624E-1,-3.886769E-1,3.9029557E-1,-3.2798912E-2,5.888309E-1,1.5720744E-1,-4.6500057E-1,8.75916E-2,5.3000903E-1],"categories":[],"categories_nodes":[],"categories_segments":[],"categories_sizes":[],"default_left":[true,true,true,false,true,true,true,false,false,false,false,false,false],"id":35,"left_children":[1,3,5,-1,7,9,11,-1,-1,-1,-1,-1,-1],"loss_changes":[7.2202196E0,5.059632E0,7.6737647E0,0E0,3.1489158E0,2.936123E0,6.51804E-1,0E0,0E0,0E0,0E0,0E0,0E0],"parents":[2147483647,0,0,1,1,2,2,4,4,5,5,6,6],"right_children":[2,4,6,-1,8,10,12,-1,-1,-1,-1,-1,-1],"split_conditions":[1.255E2,5E-1,6.3E1,6.2298644E-1,1.285E2,5E-1,6.85E1,-9.839674E-3,1.7664927E-1,4.7162235E-2,-1.3950017E-1,2.6277483E-2,1.5900272E-1],"split_indices":[18,14,9,0,0,14,9,0,0,0,0,0,0],"split_type":[0,0,0,0,0,0,0,0,0,0,0,0,0],"sum_hessian":[1.2181797E2,3.5934254E1,8.588372E1,1.5099603E0,3.4424294E1,7.0471664E1,1.5412055E1,2.1179377E1,1.3244918E1,8.644464E0,6.1827198E1,4.8670588E0,1.0544996E1],"tree_param":{"num_deleted":"0","num_feature":"21","num_nodes":"13","size_leaf_vector":"0"}},{"base_weights":[3.261678E-2,1.8870549E-1,-1.854946E-1,2.8288823E-1,-4.8260066E-1,-9.446837E-2,-4.6474126E-1,1.8645686E-1,5.908268E-1,-1.8600228E-1,-6.732445E-1,-1.4812334E-1,7.425883E-1,-5.1097506E-1,3.4276564E-2],"categories":[],"categories_nodes":[],"categories_segments":[],"categories_sizes":[],"default_left":[true,true,true,true,true,true,true,false,false,false,false,false,false,false,false],"id":36,"left_children":[1,3,5,7,9,11,13,-1,-1,-1,-1,-1,-1,-1,-1],"loss_changes":[5.481449E0,5.9335136E0,1.7071347E0,2.443904E0,6.528959E-1,2.2748048E0,3.8091993E-1,0E0,0E0,0E0,0E0,0E0,0E0,0E0,0E0],"parents":[2147483647,0,0,1,1,2,2,3,3,4,4,5,5,6,6],"right_children":[2,4,6,8,10,12,14,-1,-1,-1,-1,-1,-1,-1,-1],"split_conditions":[5.95E1,5E-4,1.435E2,2.5E-3,1.305E2,1.425E2,5E-4,5.593706E-2,1.7724805E-1,-5.5800688E-2,-2.0197335E-1,-4.4437002E-2,2.2277649E-1,-1.5329252E-1,1.0282969E-2],"split_indices":[7,6,0,1,0,0,1,0,0,0,0,0,0,0,0],"split_type":[0,0,0,0,0,0,0,0,0,0,0,0,0,0,0],"sum_hessian":[1.6100731E2,9.384692E1,6.7160385E1,8.230036E1,1.1546555E1,5.064998E1,1.651041E1,6.267394E1,1.9626425E1,4.517834E0,7.028721E0,4.7598907E1,3.05107E0,1.5110434E1,1.399976E0],"tree_param":{"num_deleted":"0","num_feature":"21","num_nodes":"15","size_leaf_vector":"0"}},{"base_weights":[3.890405E-2,-8.13897E-2,2.8495964E-1,-1.6557628E-1,5.516172E-1,3.6642718E-1,-1.4726217E0,-1.0212855E-1,-5.865116E-1,9.644024E-1,1.6130513E-1,-2.6450986E-1,4.7766224E-1],"categories":[],"categories_nodes":[],"categories_segments":[],"categories_sizes":[],"default_left":[true,true,true,true,true,true,false,false,false,false,false,false,false],"id":37,"left_children":[1,3,5,7,9,11,-1,-1,-1,-1,-1,-1,-1],"loss_changes":[4.5872006E0,5.54703E0,7.286504E0,2.453651E0,1.9685743E0,3.4132562E0,0E0,0E0,0E0,0E0,0E0,0E0,0E0],"parents":[2147483647,0,0,1,1,2,2,3,3,4,4,5,5],"right_children":[2,4,6,8,10,12,-1,-1,-1,-1,-1,-1,-1],"split_conditions":[2.5E-3,1.915E2,1.49E2,2.5E-3,1.965E2,1.285E2,-4.4178653E-1,-3.0638566E-2,-1.7595349E-1,2.8932074E-1,4.839154E-2,-7.935296E-2,1.4329867E-1],"split_indices":[2,13,0,4,13,18,0,0,0,0,0,0,0],"split_type":[0,0,0,0,0,0,0,0,0,0,0,0,0],"sum_hessian":[1.5497849E2,1.0409006E2,5.0888435E1,9.187161E1,1.221844E1,4.863414E1,2.254294E0,7.9837654E1,1.2033959E1,5.9382653E0,6.2801743E0,7.289172E0,4.1344967E1],"tree_param":{"num_deleted":"0","num_feature":"21","num_nodes":"13","size_leaf_vector":"0"}},{"base_weights":[4.1988725E-3,2.4401294E-1,-1.4887187E-1,3.4416282E-1,-4.424716E-1,2.1891661E-1,-5.1035666E-1,1.0100884E0,1.9321641E-1,2.8152347E-1,-6.1365736E-1,3.4798634E-1,-7.838675E-1,-5.3659225E-1,2.1057823E-1],"categories":[],"categories_nodes":[],"categories_segments":[],"categories_sizes":[],"default_left":[true,true,true,true,true,true,true,false,false,false,false,false,false,false,false],"id":38,"left_children":[1,3,5,7,9,11,13,-1,-1,-1,-1,-1,-1,-1,-1],"loss_changes":[3.8840718E0,2.8341868E0,8.586535E0,3.6162095E0,6.504712E-1,4.1434436E0,6.1606216E-1,0E0,0E0,0E0,0E0,0E0,0E0,0E0,0E0],"parents":[2147483647,0,0,1,1,2,2,3,3,4,4,5,5,6,6],"right_children":[2,4,6,8,10,12,14,-1,-1,-1,-1,-1,-1,-1,-1],"split_conditions":[4.5E-1,2.5E-3,1.205E2,5E-1,1.31E2,3.35E0,6.95E1,3.0302656E-1,5.7964925E-2,8.445704E-2,-1.8409722E-1,1.043959E-1,-2.3516025E-1,-1.6097768E-1,6.317347E-2],"split_indices":[8,3,17,14,0,8,9,0,0,0,0,0,0,0,0],"split_type":[0,0,0,0,0,0,0,0,0,0,0,0,0,0,0],"sum_hessian":[1.0580846E2,4.1223736E1,6.458472E1,3.597536E1,5.248374E0,3.2013233E1,3.2571487E1,6.647738E0,2.9327621E1,1.0036485E0,4.244725E0,2.8362637E1,3.6505947E0,3.1427797E1,1.1436908E0],"tree_param":{"num_deleted":"0","num_feature":"21","num_nodes":"15","size_leaf_vector":"0"}},{"base_weights":[-2.949512E-2,5.6973748E-2,-3.7039268E-1,-2.5299078E-1,1.652477E-1,4.8667055E-1,-4.7905993E-1,-5.104817E-1,-5.686726E-2,2.2833556E-1,-4.4155163E-1,6.4048034E-1,1.4210147E-1,-2.065831E-1,-6.55174E-1],"categories":[],"categories_nodes":[],"categories_segments":[],"categories_sizes":[],"default_left":[true,true,true,true,true,true,true,false,false,false,false,false,false,false,false],"id":39,"left_children":[1,3,5,7,9,11,13,-1,-1,-1,-1,-1,-1,-1,-1],"loss_changes":[4.234339E0,3.845576E0,2.7069044E0,1.4980183E0,3.2509048E0,1.7332631E-1,1.2377758E0,0E0,0E0,0E0,0E0,0E0,0E0,0E0,0E0],"parents":[2147483647,0,0,1,1,2,2,3,3,4,4,5,5,6,6],"right_children":[2,4,6,8,10,12,14,-1,-1,-1,-1,-1,-1,-1,-1],"split_conditions":[6.5E-3,6.35E1,1.285E2,1.175E2,6.05E1,1.8E-2,1.5E0,-1.5314452E-1,-1.706018E-2,6.850067E-2,-1.324655E-1,1.9214411E-1,4.263044E-2,-6.197493E-2,-1.9655222E-1],"split_indices":[2,12,0,17,9,2,9,0,0,0,0,0,0,0,0],"split_type":[0,0,0,0,0,0,0,0,0,0,0,0,0,0,0],"sum_hessian":[1.4364879E2,1.1458439E2,2.90644E1,2.966371E1,8.492068E1,3.2704246E0,2.5793976E1,1.282532E1,1.6838388E1,7.692312E1,7.9975605E0,2.2611055E0,1.0093191E0,1.0126559E1,1.5667417E1],"tree_param":{"num_deleted":"0","num_feature":"21","num_nodes":"15","size_leaf_vector":"0"}},{"base_weights":[6.0631134E-2,-5.521399E-1,1.0687914E-1,-5.202242E-1,-6.150848E-1,1.4622277E-1,-6.868832E-1,-5.094955E-1,-5.284517E-1,-6.6850257E-1,-5.1723874E-1,1.9284093E-1,-4.018794E-1,-5.934373E-1,-7.033279E-1],"categories":[],"categories_nodes":[],"categories_segments":[],"categories_sizes":[],"default_left":[true,true,true,true,true,true,true,false,false,false,false,false,false,false,false],"id":40,"left_children":[1,3,5,7,9,11,13,-1,-1,-1,-1,-1,-1,-1,-1],"loss_changes":[4.6314926E0,2.3040295E-2,4.7456427E0,6.7186356E-4,2.0168543E-2,3.6994474E0,1.1027813E-2,0E0,0E0,0E0,0E0,0E0,0E0,0E0,0E0],"parents":[2147483647,0,0,1,1,2,2,3,3,4,4,5,5,6,6],"right_children":[2,4,6,8,10,12,14,-1,-1,-1,-1,-1,-1,-1,-1],"split_conditions":[3.25E0,1E0,7.95E1,1.065E2,6.55E1,3.5E-3,5.3E0,-1.5284866E-1,-1.5853551E-1,-2.0055078E-1,-1.5517163E-1,5.7852283E-2,-1.2056383E-1,-1.780312E-1,-2.1099837E-1],"split_indices":[10,9,7,17,9,1,10,0,0,0,0,0,0,0,0],"split_type":[0,0,0,0,0,0,0,0,0,0,0,0,0,0,0],"sum_hessian":[1.6342924E2,1.1468981E1,1.5196027E2,7.610267E0,3.8587136E0,1.447839E2,7.176361E0,3.3030457E0,4.3072214E0,2.4960365E0,1.362677E0,1.3343477E2,1.134913E1,1.0739158E0,6.102445E0],"tree_param":{"num_deleted":"0","num_feature":"21","num_nodes":"15","size_leaf_vector":"0"}},{"base_weights":[-2.643035E-4,-1.1006857E-1,4.7652233E-1,5.133439E-1,-1.6766971E-1,3.4315628E-1,1.9384476E0,2.743644E-1,5.6670076E-1,1.9024955E-2,-4.3328387E-1,6.2711227E-1,-1.3537244E-2],"categories":[],"categories_nodes":[],"categories_segments":[],"categories_sizes":[],"default_left":[true,true,true,true,true,true,false,false,false,false,false,false,false],"id":41,"left_children":[1,3,5,7,9,11,-1,-1,-1,-1,-1,-1,-1],"loss_changes":[5.1836963E0,2.889959E0,3.613688E0,8.679831E-2,3.6533217E0,1.7203293E0,0E0,0E0,0E0,0E0,0E0,0E0,0E0],"parents":[2147483647,0,0,1,1,2,2,3,3,4,4,5,5],"right_children":[2,4,6,8,10,12,-1,-1,-1,-1,-1,-1,-1],"split_conditions":[1.5E-3,1.08E2,1.39E2,8.5E-3,5.5E-1,3.5E-3,5.815343E-1,8.230933E-2,1.7001024E-1,5.7074865E-3,-1.2998517E-1,1.8813369E-1,-4.061173E-3],"split_indices":[6,18,0,4,8,4,0,0,0,0,0,0,0],"split_type":[0,0,0,0,0,0,0,0,0,0,0,0,0],"sum_hessian":[9.901393E1,8.047946E1,1.853447E1,6.8070736E0,7.3672386E1,1.6984991E1,1.5494783E0,1.2424182E0,5.5646553E0,4.3263424E1,3.0408962E1,9.45671E0,7.5282817E0],"tree_param":{"num_deleted":"0","num_feature":"21","num_nodes":"13","size_leaf_vector":"0"}},{"base_weights":[-4.1229192E-2,-1.3441707E-1,4.857291E-1,-3.9309263E-2,-3.6310306E-1,5.6430155E-1,-8.6922604E-1,1.9604118E-1,-1.929963E-1,-5.058284E-1,5.255929E-2,-1.631348E-1,6.0337037E-1],"categories":[],"categories_nodes":[],"categories_segments":[],"categories_sizes":[],"default_left":[true,true,true,true,true,true,false,false,false,false,false,false,false],"id":42,"left_children":[1,3,5,7,9,11,-1,-1,-1,-1,-1,-1,-1],"loss_changes":[7.095969E0,2.670632E0,2.3117275E0,3.1367617E0,2.1396742E0,5.83292E-1,0E0,0E0,0E0,0E0,0E0,0E0,0E0],"parents":[2147483647,0,0,1,1,2,2,3,3,4,4,5,5],"right_children":[2,4,6,8,10,12,-1,-1,-1,-1,-1,-1,-1],"split_conditions":[2.5E-3,1.475E2,1.35E1,4.7E1,3.05E1,1.005E2,-2.6076782E-1,5.8812357E-2,-5.789889E-2,-1.5174852E-1,1.5767789E-2,-4.8940443E-2,1.8101111E-1],"split_indices":[1,17,14,11,9,17,0,0,0,0,0,0,0],"split_type":[0,0,0,0,0,0,0,0,0,0,0,0,0],"sum_hessian":[1.4450273E2,1.2278865E2,2.171408E1,8.672199E1,3.6066658E1,2.052392E1,1.1901608E0,3.425903E1,5.2462967E1,2.6847927E1,9.21873E0,1.0461062E0,1.9477814E1],"tree_param":{"num_deleted":"0","num_feature":"21","num_nodes":"13","size_leaf_vector":"0"}},{"base_weights":[6.889673E-2,5.0398514E-2,1.4203057E0,1.0653755E-1,-5.055653E-1,-5.727235E-2,2.9313856E-1,-5.624248E-1,-1.5620981E-1],"categories":[],"categories_nodes":[],"categories_segments":[],"categories_sizes":[],"default_left":[true,true,false,true,true,false,false,false,false],"id":43,"left_children":[1,3,-1,5,7,-1,-1,-1,-1],"loss_changes":[3.7749238E0,4.649417E0,0E0,4.135836E0,2.7139282E-1,0E0,0E0,0E0,0E0],"parents":[2147483647,0,0,1,1,3,3,4,4],"right_children":[2,4,-1,6,8,-1,-1,-1,-1],"split_conditions":[1.25E1,2.5E-3,4.2609173E-1,2.5E0,1.375E2,-1.7181706E-2,8.794157E-2,-1.6872744E-1,-4.6862945E-2],"split_indices":[14,1,0,14,12,0,0,0,0],"split_type":[0,0,0,0,0,0,0,0,0],"sum_hessian":[1.5100502E2,1.4896596E2,2.0390608E0,1.3530354E2,1.3662419E1,7.205191E1,6.325162E1,1.1750037E1,1.9123826E0],"tree_param":{"num_deleted":"0","num_feature":"21","num_nodes":"9","size_leaf_vector":"0"}},{"base_weights":[2.6136406E-2,-1.4522266E-1,7.5146204E-1,1.9708498E-1,-3.2289323E-1,2.010554E0,5.7669026E-1,-4.5282933E-1,3.6560446E-1,-4.4001016E-1,4.8625016E-1,3.531695E0,6.0546976E-1,-3.4741712E-1,8.1171995E-1],"categories":[],"categories_nodes":[],"categories_segments":[],"categories_sizes":[],"default_left":[true,true,true,true,true,true,true,false,false,false,false,false,false,false,false],"id":44,"left_children":[1,3,5,7,9,11,13,-1,-1,-1,-1,-1,-1,-1,-1],"loss_changes":[1.1953371E1,4.7312474E0,4.0443277E0,2.911254E0,4.85311E0,4.7879868E0,3.5051966E0,0E0,0E0,0E0,0E0,0E0,0E0,0E0,0E0],"parents":[2147483647,0,0,1,1,2,2,3,3,4,4,5,5,6,6],"right_children":[2,4,6,8,10,12,14,-1,-1,-1,-1,-1,-1,-1,-1],"split_conditions":[7.65E1,1.185E2,5E0,2.85E1,6.85E1,3.64E-1,7.85E1,-1.358488E-1,1.09681346E-1,-1.3200305E-1,1.4587505E-1,1.0595086E0,1.8164094E-1,-1.0422514E-1,2.43516E-1],"split_indices":[7,17,9,7,9,2,7,0,0,0,0,0,0,0,0],"split_type":[0,0,0,0,0,0,0,0,0,0,0,0,0,0,0],"sum_hessian":[9.6172356E1,7.779354E1,1.8378819E1,2.6581158E1,5.1212383E1,2.2401705E0,1.6138649E1,5.473189E0,2.110797E1,4.4737057E1,6.475325E0,1.0756615E0,1.1645088E0,3.2723145E0,1.2866334E1],"tree_param":{"num_deleted":"0","num_feature":"21","num_nodes":"15","size_leaf_vector":"0"}},{"base_weights":[-1.9164452E-2,1.7181508E-1,-2.6625082E-1,3.244933E-1,-1.01896234E-1,-3.460356E-1,1.524699E-1,5.7105817E-2,6.463345E-1,-3.5012493E-1,3.288565E-1,-5.02047E-1,-2.471269E-1,7.6203793E-1,-2.1684279E-1],"categories":[],"categories_nodes":[],"categories_segments":[],"categories_sizes":[],"default_left":[true,true,true,true,true,true,true,false,false,false,false,false,false,false,false],"id":45,"left_children":[1,3,5,7,9,11,13,-1,-1,-1,-1,-1,-1,-1,-1],"loss_changes":[6.313933E0,3.1538675E0,1.9487505E0,4.1691027E0,2.8895102E0,7.5606155E-1,2.1017365E0,0E0,0E0,0E0,0E0,0E0,0E0,0E0,0E0],"parents":[2147483647,0,0,1,1,2,2,3,3,4,4,5,5,6,6],"right_children":[2,4,6,8,10,12,14,-1,-1,-1,-1,-1,-1,-1,-1],"split_conditions":[5.95E1,1.485E2,6.5E-3,5E-1,1.475E2,5E-4,1.275E2,1.7131746E-2,1.9390036E-1,-1.0503748E-1,9.865695E-2,-1.5061411E-1,-7.4138075E-2,2.286114E-1,-6.505284E-2],"split_indices":[7,17,3,9,0,3,0,0,0,0,0,0,0,0,0],"split_type":[0,0,0,0,0,0,0,0,0,0,0,0,0,0,0],"sum_hessian":[1.3380254E2,7.546988E1,5.833265E1,4.844622E1,2.702366E1,4.8996628E1,9.336021E0,2.6461697E1,2.1984522E1,1.7144085E1,9.879576E0,1.9010633E1,2.9985994E1,3.5222995E0,5.813722E0],"tree_param":{"num_deleted":"0","num_feature":"21","num_nodes":"15","size_leaf_vector":"0"}},{"base_weights":[-1.8119698E-2,-1.08596206E-1,4.292634E-1,-1.6142148E-1,3.6952814E-1,-6.483065E-1,5.0816095E-1,-2.0540619E-1,3.1876177E-1,-5.2720964E-1,5.0149995E-1,5.76564E-1,-5.3321695E-1],"categories":[],"categories_nodes":[],"categories_segments":[],"categories_sizes":[],"default_left":[true,true,true,true,true,false,true,false,false,false,false,false,false],"id":46,"left_children":[1,3,5,7,9,-1,11,-1,-1,-1,-1,-1,-1],"loss_changes":[5.87562E0,3.0495205E0,2.0759363E0,2.2963881E0,1.4216211E0,0E0,1.6206942E0,0E0,0E0,0E0,0E0,0E0,0E0],"parents":[2147483647,0,0,1,1,2,2,3,3,4,4,6,6],"right_children":[2,4,6,8,10,-1,12,-1,-1,-1,-1,-1,-1],"split_conditions":[5.5E-3,1.915E2,1.275E2,1.455E2,1.235E2,-1.9449195E-1,5.5E-3,-6.162186E-2,9.562854E-2,-1.5816289E-1,1.5044999E-1,1.729692E-1,-1.599651E-1],"split_indices":[2,13,0,12,17,0,1,0,0,0,0,0,0],"split_type":[0,0,0,0,0,0,0,0,0,0,0,0,0],"sum_hessian":[1.451571E2,1.2073938E2,2.4417723E1,1.0872677E2,1.2012609E1,1.6658472E0,2.2751875E1,9.9603134E1,9.123633E0,1.5410814E0,1.0471527E1,2.134953E1,1.4023468E0],"tree_param":{"num_deleted":"0","num_feature":"21","num_nodes":"13","size_leaf_vector":"0"}},{"base_weights":[7.660736E-2,2.848136E-1,-7.37075E-2,3.1471718E-2,6.741683E-1,-2.8812683E-1,2.6557085E-1,5.724699E-1,-1.8776503E-1,9.6146345E-1,3.500186E-1,-4.2461386E-1,5.40851E-1,1.6174701E0,1.375622E-1],"categories":[],"categories_nodes":[],"categories_segments":[],"categories_sizes":[],"default_left":[true,true,true,true,true,true,true,false,false,false,false,false,false,false,false],"id":47,"left_children":[1,3,5,7,9,11,13,-1,-1,-1,-1,-1,-1,-1,-1],"loss_changes":[2.933014E0,3.8757699E0,3.9592917E0,2.823281E0,1.4423833E0,3.7732475E0,3.647307E0,0E0,0E0,0E0,0E0,0E0,0E0,0E0,0E0],"parents":[2147483647,0,0,1,1,2,2,3,3,4,4,5,5,6,6],"right_children":[2,4,6,8,10,12,14,-1,-1,-1,-1,-1,-1,-1,-1],"split_conditions":[1.245E2,1.295E2,1.475E2,3.5000002E-1,2.5E-3,6.9E1,-5E-1,1.7174098E-1,-5.632951E-2,2.8843904E-1,1.05005585E-1,-1.2738417E-1,1.622553E-1,4.8524106E-1,4.126866E-2],"split_indices":[17,0,0,8,4,9,20,0,0,0,0,0,0,0,0],"split_type":[0,0,0,0,0,0,0,0,0,0,0,0,0,0,0],"sum_hessian":[9.371701E1,3.9292133E1,5.4424877E1,2.380373E1,1.5488403E1,3.3348854E1,2.1076023E1,6.8645263E0,1.6939203E1,8.210979E0,7.277424E0,2.863435E1,4.714503E0,1.8230278E0,1.9252995E1],"tree_param":{"num_deleted":"0","num_feature":"21","num_nodes":"15","size_leaf_vector":"0"}},{"base_weights":[-3.8923185E-2,-2.1562232E-1,1.236608E-1,-1.10228084E-1,-5.185336E-1,1.7194328E-1,-5.181027E-1,-1.9636499E-2,-6.055893E-1,-4.7649077E-1,-1.0267888E0,3.448695E-1,5.8117352E-2,-6.7565215E-1,1.4621672E-2],"categories":[],"categories_nodes":[],"categories_segments":[],"categories_sizes":[],"default_left":[true,true,true,true,true,true,true,false,false,false,false,false,false,false,false],"id":48,"left_children":[1,3,5,7,9,11,13,-1,-1,-1,-1,-1,-1,-1,-1],"loss_changes":[3.4567995E0,1.8408132E0,1.9417739E0,1.9196303E0,3.1804085E-1,1.1471843E0,3.680147E-1,0E0,0E0,0E0,0E0,0E0,0E0,0E0,0E0],"parents":[2147483647,0,0,1,1,2,2,3,3,4,4,5,5,6,6],"right_children":[2,4,6,8,10,12,14,-1,-1,-1,-1,-1,-1,-1,-1],"split_conditions":[3.5E-3,3.75E1,1.5E-3,5.2E1,1.4799999E1,6.55E0,9.25E1,-5.89095E-3,-1.8167679E-1,-1.4294724E-1,-3.0803666E-1,1.03460856E-1,1.7435206E-2,-2.0269565E-1,4.386502E-3],"split_indices":[3,9,6,19,10,10,19,0,0,0,0,0,0,0,0],"split_type":[0,0,0,0,0,0,0,0,0,0,0,0,0,0,0],"sum_hessian":[1.203267E2,5.7660385E1,6.2666317E1,4.2776745E1,1.488364E1,5.828156E1,4.3847585E0,3.616322E1,6.613525E0,1.374653E1,1.1371104E0,2.3134798E1,3.5146763E1,3.3839726E0,1.000786E0],"tree_param":{"num_deleted":"0","num_feature":"21","num_nodes":"15","size_leaf_vector":"0"}},{"base_weights":[1.1752914E-2,-1.2861185E-1,1.8521808E-1,1.2826198E-1,-3.4762362E-1,2.1721809E-1,-5.377857E-1,-5.004091E-2,5.002862E-1,-4.9667096E-1,1.04817644E-1,2.5030038E-1,-5.3628933E-1,-5.268329E-1,-5.4808116E-1],"categories":[],"categories_nodes":[],"categories_segments":[],"categories_sizes":[],"default_left":[true,true,true,true,true,true,true,false,false,false,false,false,false,false,false],"id":49,"left_children":[1,3,5,7,9,11,13,-1,-1,-1,-1,-1,-1,-1,-1],"loss_changes":[3.1717422E0,4.0507255E0,1.3479751E0,2.198062E0,2.6208925E0,1.390804E0,2.784729E-4,0E0,0E0,0E0,0E0,0E0,0E0,0E0,0E0],"parents":[2147483647,0,0,1,1,2,2,3,3,4,4,5,5,6,6],"right_children":[2,4,6,8,10,12,14,-1,-1,-1,-1,-1,-1,-1,-1],"split_conditions":[1.445E2,7.45E1,6.9E1,5E-4,3.5E-3,5.5E-3,1E-3,-1.5012273E-2,1.5008587E-1,-1.490013E-1,3.1445295E-2,7.509012E-2,-1.6088681E-1,-1.5804987E-1,-1.6442436E-1],"split_indices":[17,12,9,6,2,1,3,0,0,0,0,0,0,0,0],"split_type":[0,0,0,0,0,0,0,0,0,0,0,0,0,0,0],"sum_hessian":[1.3026494E2,7.200215E1,5.826279E1,3.3136787E1,3.8865368E1,5.579339E1,2.4694045E0,2.2400654E1,1.0736132E1,2.9234629E1,9.630739E0,5.3446835E1,2.3465517E0,1.1965054E0,1.2728992E0],"tree_param":{"num_deleted":"0","num_feature":"21","num_nodes":"15","size_leaf_vector":"0"}},{"base_weights":[-2.7381223E-2,4.309657E-1,-1.0591745E-1,5.265264E-1,-1.8335162E-2,5.747149E-2,-4.1993716E-1,5.210418E-1,5.4314595E-1,-3.0500848E-2,6.107801E-1,-4.9860922E-1,-1.8706143E-1],"categories":[],"categories_nodes":[],"categories_segments":[],"categories_sizes":[],"default_left":[true,true,true,true,false,true,true,false,false,false,false,false,false],"id":50,"left_children":[1,3,5,7,-1,9,11,-1,-1,-1,-1,-1,-1],"loss_changes":[2.7658992E0,4.8259068E-1,3.3656282E0,8.44717E-4,0E0,2.1002297E0,4.113047E-1,0E0,0E0,0E0,0E0,0E0,0E0],"parents":[2147483647,0,0,1,1,2,2,3,3,5,5,6,6],"right_children":[2,4,6,8,-1,10,12,-1,-1,-1,-1,-1,-1],"split_conditions":[1.075E2,2.5E-3,5.5E-1,1.15E-2,-5.5005485E-3,1.01E1,4.75E1,1.5631256E-1,1.629438E-1,-9.150255E-3,1.8323404E-1,-1.4958277E-1,-5.6118432E-2],"split_indices":[17,1,8,4,0,10,19,0,0,0,0,0,0],"split_type":[0,0,0,0,0,0,0,0,0,0,0,0,0],"sum_hessian":[7.683729E1,1.1239896E1,6.55974E1,9.268584E0,1.971312E0,4.314726E1,2.2450134E1,6.968828E0,2.2997558E0,3.7228226E1,5.9190364E0,1.6781027E1,5.669108E0],"tree_param":{"num_deleted":"0","num_feature":"21","num_nodes":"13","size_leaf_vector":"0"}},{"base_weights":[-3.115112E-3,-1.5333699E-1,1.2926434E-1,-4.209453E-2,-3.223898E-1,-4.3783146E-1,1.8953751E-1,1.6591449E-1,-3.0299076E-1,-4.1038042E-1,1.2191349E-3,-6.521215E-1,-9.778019E-2,3.1284317E-1,-9.3319036E-2],"categories":[],"categories_nodes":[],"categories_segments":[],"categories_sizes":[],"default_left":[true,true,true,true,true,true,true,false,false,false,false,false,false,false,false],"id":51,"left_children":[1,3,5,7,9,11,13,-1,-1,-1,-1,-1,-1,-1,-1],"loss_changes":[2.2943983E0,1.0163761E0,2.096305E0,1.7689604E0,6.1076355E-1,4.2935967E-1,1.9335556E0,0E0,0E0,0E0,0E0,0E0,0E0,0E0,0E0],"parents":[2147483647,0,0,1,1,2,2,3,3,4,4,5,5,6,6],"right_children":[2,4,6,8,10,12,14,-1,-1,-1,-1,-1,-1,-1,-1],"split_conditions":[3.5E-3,1.9E1,1.06E2,4.5E-3,1.5E-3,4.5E0,5.5E0,4.977435E-2,-9.089723E-2,-1.2311413E-1,3.6574047E-4,-1.9563645E-1,-2.9334059E-2,9.385296E-2,-2.7995711E-2],"split_indices":[3,9,16,2,3,14,14,0,0,0,0,0,0,0,0],"split_type":[0,0,0,0,0,0,0,0,0,0,0,0,0,0,0],"sum_hessian":[1.15375885E2,5.404574E1,6.133015E1,3.2596283E1,2.1449453E1,5.892166E0,5.5437984E1,1.8136389E1,1.4459896E1,1.6864048E1,4.5854044E0,3.6144495E0,2.2777166E0,3.860772E1,1.6830265E1],"tree_param":{"num_deleted":"0","num_feature":"21","num_nodes":"15","size_leaf_vector":"0"}},{"base_weights":[4.2393778E-2,6.900021E-2,-5.3104794E-1,2.8972683E-2,5.89611E-1,-5.170002E-1,-5.3579265E-1,1.5209322E-1,-1.23372234E-1,9.951444E-2,6.5407854E-1,-5.395219E-1,-5.335015E-1],"categories":[],"categories_nodes":[],"categories_segments":[],"categories_sizes":[],"default_left":[true,true,true,true,true,false,true,false,false,false,false,false,false],"id":52,"left_children":[1,3,5,7,9,-1,11,-1,-1,-1,-1,-1,-1],"loss_changes":[1.9906837E0,2.5983722E0,3.8552284E-4,2.1717927E0,2.8127313E-1,0E0,3.707409E-5,0E0,0E0,0E0,0E0,0E0,0E0],"parents":[2147483647,0,0,1,1,2,2,3,3,4,4,6,6],"right_children":[2,4,6,8,10,-1,12,-1,-1,-1,-1,-1,-1],"split_conditions":[6.85E1,6.05E1,3.6E0,3.5E-3,3.85E0,-1.5510006E-1,9.05E1,4.5627967E-2,-3.701167E-2,2.9854333E-2,1.9622357E-1,-1.6185656E-1,-1.6005045E-1],"split_indices":[9,9,10,3,10,0,12,0,0,0,0,0,0],"split_type":[0,0,0,0,0,0,0,0,0,0,0,0,0],"sum_hessian":[1.304747E2,1.2468939E2,5.785313E0,1.15787025E2,8.902367E0,1.4606841E0,4.3246293E0,6.4035484E1,5.1751537E1,1.0348912E0,7.867475E0,1.645834E0,2.678795E0],"tree_param":{"num_deleted":"0","num_feature":"21","num_nodes":"13","size_leaf_vector":"0"}},{"base_weights":[4.0470887E-2,4.427251E-1,-4.6275146E-2,6.3684267E-1,2.768987E-1,1.5506947E-1,-3.205374E-1,7.529385E-1,5.0231075E-1,-7.251434E-1,5.067724E-1,3.6831063E-1,-2.2813922E-1,-4.6239778E-1,4.2131692E-1],"categories":[],"categories_nodes":[],"categories_segments":[],"categories_sizes":[],"default_left":[true,true,true,true,true,true,true,false,false,false,false,false,false,false,false],"id":53,"left_children":[1,3,5,7,9,11,13,-1,-1,-1,-1,-1,-1,-1,-1],"loss_changes":[2.7216818E0,4.453957E-1,3.5431101E0,9.956074E-2,1.7188299E0,3.0234509E0,2.8585796E0,0E0,0E0,0E0,0E0,0E0,0E0,0E0,0E0],"parents":[2147483647,0,0,1,1,2,2,3,3,4,4,5,5,6,6],"right_children":[2,4,6,8,10,12,14,-1,-1,-1,-1,-1,-1,-1,-1],"split_conditions":[1.085E2,6.05E1,2.5E-3,2.5E0,6.25E1,2.5E0,2.5E-3,2.2588156E-1,1.5069324E-1,-2.1754302E-1,1.5203172E-1,1.1049319E-1,-6.844177E-2,-1.3871934E-1,1.2639508E-1],"split_indices":[16,12,3,14,12,14,6,0,0,0,0,0,0,0,0],"split_type":[0,0,0,0,0,0,0,0,0,0,0,0,0,0,0],"sum_hessian":[7.799866E1,1.3836545E1,6.416211E1,6.3745036E0,7.4620414E0,3.6999557E1,2.716255E1,3.4217048E0,2.9527988E0,1.3924061E0,6.0696354E0,2.3771574E1,1.3227983E1,2.2802217E1,4.3603325E0],"tree_param":{"num_deleted":"0","num_feature":"21","num_nodes":"15","size_leaf_vector":"0"}},{"base_weights":[-3.7950236E-2,-6.6315204E-2,6.2582827E-1,1.6576003E-1,-1.3431232E-1,8.0708236E-1,6.0575767E-3,-5.398037E-1,2.968822E-1,-4.353843E-1,-6.667001E-2,1.2169735E0,6.412957E-1],"categories":[],"categories_nodes":[],"categories_segments":[],"categories_sizes":[],"default_left":[true,true,true,true,true,true,false,false,false,false,false,false,false],"id":54,"left_children":[1,3,5,7,9,11,-1,-1,-1,-1,-1,-1,-1],"loss_changes":[2.105085E0,1.6920395E0,5.147178E-1,2.2478545E0,1.6888177E0,2.4090958E-1,0E0,0E0,0E0,0E0,0E0,0E0,0E0],"parents":[2147483647,0,0,1,1,2,2,3,3,4,4,5,5],"right_children":[2,4,6,8,10,12,-1,-1,-1,-1,-1,-1,-1],"split_conditions":[1.605E1,1.305E2,2.6E1,4.5E-1,1.335E2,1.1500001E0,1.8172731E-3,-1.6194111E-1,8.9064665E-2,-1.306153E-1,-2.0001004E-2,3.6509207E-1,1.9238871E-1],"split_indices":[10,0,10,8,0,8,0,0,0,0,0,0,0],"split_type":[0,0,0,0,0,0,0,0,0,0,0,0,0],"sum_hessian":[1.1180576E2,1.0722381E2,4.5819497E0,2.4297173E1,8.2926636E1,3.5451565E0,1.0367934E0,3.8077593E0,2.0489412E1,1.5213266E1,6.771337E1,1.0209526E0,2.524204E0],"tree_param":{"num_deleted":"0","num_feature":"21","num_nodes":"13","size_leaf_vector":"0"}},{"base_weights":[8.225355E-2,1.378532E-1,-5.4750365E-1,1.24905854E-1,1.117594E0,-7.978551E-1,2.6728866E-1,1.4627372E-1,-4.9814183E-1,-1.3948998E0,-5.9990287E-1,-1.20410465E-1,8.3410364E-1],"categories":[],"categories_nodes":[],"categories_segments":[],"categories_sizes":[],"default_left":[true,true,true,true,false,true,true,false,false,false,false,false,false],"id":55,"left_children":[1,3,5,7,-1,9,11,-1,-1,-1,-1,-1,-1],"loss_changes":[4.9408875E0,1.6447811E0,2.335136E0,1.7037139E0,0E0,1.0349541E0,5.9127986E-1,0E0,0E0,0E0,0E0,0E0,0E0],"parents":[2147483647,0,0,1,1,2,2,3,3,5,5,6,6],"right_children":[2,4,6,8,-1,10,12,-1,-1,-1,-1,-1,-1],"split_conditions":[7.85E1,3.5E0,1.35E2,1.61E1,3.352782E-1,7.95E1,8.6E0,4.3882117E-2,-1.4944255E-1,-4.1846997E-1,-1.7997086E-1,-3.612314E-2,2.5023112E-1],"split_indices":[7,15,12,10,0,7,10,0,0,0,0,0,0],"split_type":[0,0,0,0,0,0,0,0,0,0,0,0,0],"sum_hessian":[1.4111064E2,1.2966302E2,1.1447617E1,1.2797187E2,1.6911578E0,8.756968E0,2.6906486E0,1.23728516E2,4.2433558E0,2.180463E0,6.5765047E0,1.5977763E0,1.0928724E0],"tree_param":{"num_deleted":"0","num_feature":"21","num_nodes":"13","size_leaf_vector":"0"}},{"base_weights":[-8.7509975E-2,3.46998E-1,-2.129459E-1,4.844529E-1,-8.6476E-1,2.8402516E-1,-2.941903E-1,3.7983763E-1,1.0210369E0,5.7367027E-1,-5.4463726E-1,3.5313204E-1,-3.596591E-1],"categories":[],"categories_nodes":[],"categories_segments":[],"categories_sizes":[],"default_left":[true,true,true,true,false,true,true,false,false,false,false,false,false],"id":56,"left_children":[1,3,5,7,-1,9,11,-1,-1,-1,-1,-1,-1],"loss_changes":[3.3762271E0,2.3113484E0,1.9408398E0,6.996126E-1,0E0,1.6211109E0,1.7509017E0,0E0,0E0,0E0,0E0,0E0,0E0],"parents":[2147483647,0,0,1,1,2,2,3,3,5,5,6,6],"right_children":[2,4,6,8,-1,10,12,-1,-1,-1,-1,-1,-1],"split_conditions":[7.5E-1,1.35E-2,2.5E-1,1E0,-2.59428E-1,5.65E0,1.035E2,1.13951296E-1,3.0631107E-1,1.7210108E-1,-1.6339119E-1,1.0593962E-1,-1.07897736E-1],"split_indices":[10,4,8,9,0,10,16,0,0,0,0,0,0],"split_type":[0,0,0,0,0,0,0,0,0,0,0,0,0],"sum_hessian":[6.1945812E1,1.38768015E1,4.806901E1,1.2463062E1,1.4137385E0,6.7541213E0,4.131489E1,1.0429644E1,2.033419E0,5.0047827E0,1.7493384E0,3.7947125E0,3.752018E1],"tree_param":{"num_deleted":"0","num_feature":"21","num_nodes":"13","size_leaf_vector":"0"}},{"base_weights":[-2.7620897E-3,-3.4410924E-1,9.955148E-2,5.793151E-1,-4.0875295E-1,-4.1046908E-1,1.5008304E-1,-4.6125454E-1,6.967496E-1,-1.9062209E-1,-9.472343E-1,4.0038693E-1,2.0660687E-2],"categories":[],"categories_nodes":[],"categories_segments":[],"categories_sizes":[],"default_left":[true,true,true,false,true,true,true,false,false,false,false,false,false],"id":57,"left_children":[1,3,5,-1,7,9,11,-1,-1,-1,-1,-1,-1],"loss_changes":[3.682288E0,1.4514372E0,2.0906625E0,0E0,1.3189154E0,8.629489E-1,2.3910136E0,0E0,0E0,0E0,0E0,0E0,0E0],"parents":[2147483647,0,0,1,1,2,2,4,4,5,5,6,6],"right_children":[2,4,6,-1,8,10,12,-1,-1,-1,-1,-1,-1],"split_conditions":[5E-4,4.55E1,1.145E2,1.7379454E-1,1.56E2,5E-1,1.385E2,-1.3837637E-1,2.0902489E-1,-5.718663E-2,-2.841703E-1,1.20116085E-1,6.1982065E-3],"split_indices":[3,7,16,0,17,20,17,0,0,0,0,0,0],"split_type":[0,0,0,0,0,0,0,0,0,0,0,0,0],"sum_hessian":[1.0543584E2,2.4314789E1,8.112105E1,1.5907795E0,2.272401E1,7.3127418E0,7.380831E1,2.1693748E1,1.0302608E0,5.187896E0,2.124846E0,2.5156134E1,4.8652176E1],"tree_param":{"num_deleted":"0","num_feature":"21","num_nodes":"13","size_leaf_vector":"0"}},{"base_weights":[-6.5176827E-3,2.9376294E-2,-5.6188047E-1,-3.438744E-1,9.090363E-2,-5.2962404E-1,-6.425604E-1,-5.180908E-1,1.3874051E-3,5.5950485E-2,1.2362379E0,-5.19277E-1,-5.566616E-1,-6.961599E-1,-5.9553146E-1],"categories":[],"categories_nodes":[],"categories_segments":[],"categories_sizes":[],"default_left":[true,true,true,true,true,true,true,false,false,false,false,false,false,false,false],"id":58,"left_children":[1,3,5,7,9,11,13,-1,-1,-1,-1,-1,-1,-1,-1],"loss_changes":[2.5522351E0,2.7617967E0,2.022791E-2,1.0236723E0,4.1330867E0,1.553297E-3,5.5960417E-3,0E0,0E0,0E0,0E0,0E0,0E0,0E0,0E0],"parents":[2147483647,0,0,1,1,2,2,3,3,4,4,5,5,6,6],"right_children":[2,4,6,8,10,12,14,-1,-1,-1,-1,-1,-1,-1,-1],"split_conditions":[3.5E-3,1.285E2,4.5E0,1.225E2,9.85E1,1.545E2,1.67E2,-1.5542725E-1,4.1622153E-4,1.6785147E-2,3.7087137E-1,-1.557831E-1,-1.6699849E-1,-2.0884798E-1,-1.7865944E-1],"split_indices":[1,18,9,17,19,17,13,0,0,0,0,0,0,0,0],"split_type":[0,0,0,0,0,0,0,0,0,0,0,0,0,0,0],"sum_hessian":[1.2803311E2,1.2026049E2,7.772626E0,1.7018587E1,1.03241905E2,5.5526385E0,2.2199876E0,1.1311097E1,5.707489E0,1.0018449E2,3.057416E0,4.015821E0,1.5368174E0,1.0375168E0,1.1824708E0],"tree_param":{"num_deleted":"0","num_feature":"21","num_nodes":"15","size_leaf_vector":"0"}},{"base_weights":[7.8583315E-2,-1.2624992E-1,4.4383466E-1,2.8173813E-1,-2.5251454E-1,5.1788783E-1,-5.4377854E-1,4.1008142E-1,-8.1973284E-1,-6.471953E-1,-1.3813081E-1,4.4622484E-1,1.1913708E0],"categories":[],"categories_nodes":[],"categories_segments":[],"categories_sizes":[],"default_left":[true,true,true,true,true,true,false,false,false,false,false,false,false],"id":59,"left_children":[1,3,5,7,9,11,-1,-1,-1,-1,-1,-1,-1],"loss_changes":[5.126749E0,2.2616813E0,1.8006992E0,1.4668424E0,1.5136075E0,1.1054301E0,0E0,0E0,0E0,0E0,0E0,0E0,0E0],"parents":[2147483647,0,0,1,1,2,2,3,3,4,4,5,5],"right_children":[2,4,6,8,10,12,-1,-1,-1,-1,-1,-1,-1],"split_conditions":[6.95E1,1.085E2,1.5E0,1.3E-2,4.65E1,1.71E2,-1.6313356E-1,1.2302443E-1,-2.4591987E-1,-1.941586E-1,-4.1439246E-2,1.3386746E-1,3.5741127E-1],"split_indices":[7,16,19,4,7,13,0,0,0,0,0,0,0],"split_type":[0,0,0,0,0,0,0,0,0,0,0,0,0],"sum_hessian":[6.8525116E1,4.390382E1,2.4621296E1,1.0376174E1,3.352765E1,2.2903917E1,1.7173799E0,9.293318E0,1.0828564E0,7.53346E0,2.5994186E1,2.0701178E1,2.20274E0],"tree_param":{"num_deleted":"0","num_feature":"21","num_nodes":"13","size_leaf_vector":"0"}},{"base_weights":[-8.504036E-3,-2.2032891E-1,6.1374426E-2,-3.1891346E-1,4.5158657E-1,1.0139429E-1,-4.7634545E-1,-4.079854E-1,6.789039E-1,8.282929E-1,-1.266694E-1,8.119435E-2,1.4804306E0,-5.61101E-1,-1.05956726E-1],"categories":[],"categories_nodes":[],"categories_segments":[],"categories_sizes":[],"default_left":[true,true,true,true,true,true,true,false,false,false,false,false,false,false,false],"id":60,"left_children":[1,3,5,7,9,11,13,-1,-1,-1,-1,-1,-1,-1,-1],"loss_changes":[1.5920646E0,1.7673202E0,1.7404318E0,2.0678813E0,7.436199E-1,2.0968874E0,1.7587113E-1,0E0,0E0,0E0,0E0,0E0,0E0,0E0,0E0],"parents":[2147483647,0,0,1,1,2,2,3,3,4,4,5,5,6,6],"right_children":[2,4,6,8,10,12,14,-1,-1,-1,-1,-1,-1,-1,-1],"split_conditions":[1.245E2,8.95E1,5.95E1,1.355E2,1.5E-3,1.515E2,7.15E1,-1.2239562E-1,2.0367117E-1,2.4848787E-1,-3.8000822E-2,2.4358306E-2,4.441292E-1,-1.6833031E-1,-3.178702E-2],"split_indices":[17,12,9,16,2,12,9,0,0,0,0,0,0,0,0],"split_type":[0,0,0,0,0,0,0,0,0,0,0,0,0,0,0],"sum_hessian":[1.0755742E2,2.668036E1,8.087705E1,2.3266642E1,3.4137201E0,7.527473E1,5.60233E0,2.1359911E1,1.9067302E0,2.0671015E0,1.3466187E0,7.418803E1,1.0866966E0,4.5590816E0,1.0432487E0],"tree_param":{"num_deleted":"0","num_feature":"21","num_nodes":"15","size_leaf_vector":"0"}},{"base_weights":[-8.77751E-2,-7.469517E-1,-4.888149E-2,-9.1645056E-1,8.825469E-3,-1.3045555E-1,1.9088756E-1,-7.020997E-1,-1.2311542E0,-6.905866E-2,-9.422845E-1,2.771301E-1,-6.9921523E-1],"categories":[],"categories_nodes":[],"categories_segments":[],"categories_sizes":[],"default_left":[true,true,true,true,false,true,true,false,false,false,false,false,false],"id":61,"left_children":[1,3,5,7,-1,9,11,-1,-1,-1,-1,-1,-1],"loss_changes":[3.06196E0,8.524308E-1,2.2058063E0,3.6664677E-1,0E0,4.1942787E0,2.1976929E0,0E0,0E0,0E0,0E0,0E0,0E0],"parents":[2147483647,0,0,1,1,2,2,3,3,5,5,6,6],"right_children":[2,4,6,8,-1,10,12,-1,-1,-1,-1,-1,-1],"split_conditions":[-5E-1,1.825E2,1.525E2,1.715E2,2.6476406E-3,1.505E2,1.515E2,-2.1062991E-1,-3.6934626E-1,-2.0717598E-2,-2.8268537E-1,8.313903E-2,-2.0976458E-1],"split_indices":[20,13,16,13,0,17,0,0,0,0,0,0,0],"split_type":[0,0,0,0,0,0,0,0,0,0,0,0,0],"sum_hessian":[1.1943166E2,6.654242E0,1.1277742E2,5.4352694E0,1.2189728E0,8.414848E1,2.862894E1,3.2331243E0,2.2021449E0,7.8231964E1,5.9165173E0,2.6100088E1,2.5288515E0],"tree_param":{"num_deleted":"0","num_feature":"21","num_nodes":"13","size_leaf_vector":"0"}},{"base_weights":[-4.794748E-2,1.9140252E-1,-2.2685806E-1,-2.5297177E-3,5.2181375E-1,-2.903401E-1,5.4036313E-1,1.7430389E-1,-4.5249686E-1,9.099117E-1,-3.4708607E-3,-4.082718E-1,9.423062E-2,5.2714926E-1,5.536874E-1],"categories":[],"categories_nodes":[],"categories_segments":[],"categories_sizes":[],"default_left":[true,true,true,true,true,true,true,false,false,false,false,false,false,false,false],"id":62,"left_children":[1,3,5,7,9,11,13,-1,-1,-1,-1,-1,-1,-1,-1],"loss_changes":[2.5402713E0,1.62594E0,1.6533644E0,1.2722846E0,1.9132421E0,1.4219315E0,4.566908E-4,0E0,0E0,0E0,0E0,0E0,0E0,0E0,0E0],"parents":[2147483647,0,0,1,1,2,2,3,3,4,4,5,5,6,6],"right_children":[2,4,6,8,10,12,14,-1,-1,-1,-1,-1,-1,-1,-1],"split_conditions":[1.315E2,1.305E2,7.35E1,1.235E2,5.8E1,1.495E2,2.5E-1,5.229117E-2,-1.3574906E-1,2.729735E-1,-1.0412582E-3,-1.2248154E-1,2.8269188E-2,1.5814479E-1,1.6610622E-1],"split_indices":[18,0,9,18,19,0,8,0,0,0,0,0,0,0,0],"split_type":[0,0,0,0,0,0,0,0,0,0,0,0,0,0,0],"sum_hessian":[5.9321297E1,2.537463E1,3.3946667E1,1.5989638E1,9.384992E0,3.1352476E1,2.5941916E0,1.1478627E1,4.5110116E0,5.3972917E0,3.9877007E0,2.39944E1,7.3580756E0,1.3024896E0,1.2917019E0],"tree_param":{"num_deleted":"0","num_feature":"21","num_nodes":"15","size_leaf_vector":"0"}},{"base_weights":[-6.0689233E-2,-1.0448924E-1,5.011087E-1,3.368497E-2,-1.9649498E-1,5.2086315E-3,5.908222E-1,-2.575434E-1,1.6027486E-1,-1.4956518E0,-1.0528454E-1,7.844947E-1,5.2807844E-1],"categories":[],"categories_nodes":[],"categories_segments":[],"categories_sizes":[],"default_left":[true,true,true,true,true,false,true,false,false,false,false,false,false],"id":63,"left_children":[1,3,5,7,9,-1,11,-1,-1,-1,-1,-1,-1],"loss_changes":[2.7242372E0,1.3056548E0,3.562317E-1,1.5134448E0,7.3055344E0,0E0,8.2395315E-2,0E0,0E0,0E0,0E0,0E0,0E0],"parents":[2147483647,0,0,1,1,2,2,3,3,4,4,6,6],"right_children":[2,4,6,8,10,-1,12,-1,-1,-1,-1,-1,-1],"split_conditions":[3.5E-3,1.375E2,1E-1,1.225E2,1.34E2,1.5625895E-3,4.5E-3,-7.726303E-2,4.808246E-2,-4.4869557E-1,-3.1585366E-2,2.3534842E-1,1.5842354E-1],"split_indices":[1,17,10,16,0,0,1,0,0,0,0,0,0],"split_type":[0,0,0,0,0,0,0,0,0,0,0,0,0],"sum_hessian":[1.1071097E2,1.0270377E2,8.007195E0,4.1051956E1,6.165182E1,1.2266686E0,6.7805266E0,1.2437854E1,2.8614101E1,4.044463E0,5.7607357E1,1.6591607E0,5.121366E0],"tree_param":{"num_deleted":"0","num_feature":"21","num_nodes":"13","size_leaf_vector":"0"}},{"base_weights":[4.0572464E-2,7.855007E-2,-6.649997E-1,-1.6644783E-2,3.7450972E-1,-5.74031E-1,-7.105567E-1,6.0889922E-2,-3.8157135E-1,-6.012234E-1,4.4490242E-1,-5.724421E-1,-5.7562286E-1,-7.8218484E-1,-6.495255E-1],"categories":[],"categories_nodes":[],"categories_segments":[],"categories_sizes":[],"default_left":[true,true,true,true,true,true,true,false,false,false,false,false,false,false,false],"id":64,"left_children":[1,3,5,7,9,11,13,-1,-1,-1,-1,-1,-1,-1,-1],"loss_changes":[3.1950262E0,3.187739E0,2.5238752E-2,2.4222703E0,1.8913009E0,5.1259995E-6,1.7739296E-2,0E0,0E0,0E0,0E0,0E0,0E0,0E0,0E0],"parents":[2147483647,0,0,1,1,2,2,3,3,4,4,5,5,6,6],"right_children":[2,4,6,8,10,12,14,-1,-1,-1,-1,-1,-1,-1,-1],"split_conditions":[2.95E-2,3.5E-3,5.65E1,7.05E1,3.75E0,9.85E1,6.3E1,1.8266978E-2,-1.1447141E-1,-1.8036702E-1,1.3347073E-1,-1.7173263E-1,-1.7268686E-1,-2.3465545E-1,-1.9485767E-1],"split_indices":[2,2,19,7,10,11,19,0,0,0,0,0,0,0,0],"split_type":[0,0,0,0,0,0,0,0,0,0,0,0,0,0,0],"sum_hessian":[1.1923545E2,1.1314537E2,6.090079E0,8.560931E1,2.7536068E1,2.0321856E0,4.0578933E0,7.060756E1,1.5001747E1,1.8528727E0,2.5683195E1,1.0170455E0,1.0151402E0,1.8668718E0,2.1910214E0],"tree_param":{"num_deleted":"0","num_feature":"21","num_nodes":"15","size_leaf_vector":"0"}},{"base_weights":[1.4829129E-3,-8.691997E-2,5.418924E-1,-2.0000492E-1,4.962184E-1,5.600582E-1,5.280935E-1,-4.665624E-1,2.2715439E-1,6.873198E-1,-8.2810485E-1,5.70465E-1,5.509675E-1,5.356134E-1,5.21409E-1],"categories":[],"categories_nodes":[],"categories_segments":[],"categories_sizes":[],"default_left":[true,true,true,true,true,true,true,false,false,false,false,false,false,false,false],"id":65,"left_children":[1,3,5,7,9,11,13,-1,-1,-1,-1,-1,-1,-1,-1],"loss_changes":[2.9550998E0,3.5055897E0,2.179861E-3,5.0697722E0,2.185238E0,3.5512447E-4,2.4843216E-4,0E0,0E0,0E0,0E0,0E0,0E0,0E0,0E0],"parents":[2147483647,0,0,1,1,2,2,3,3,4,4,5,5,6,6],"right_children":[2,4,6,8,10,12,14,-1,-1,-1,-1,-1,-1,-1,-1],"split_conditions":[6.85E1,7.85E1,6.75E1,5E-4,4.15E1,3.55E1,7.6E1,-1.3996872E-1,6.814632E-2,2.0619595E-1,-2.4843146E-1,1.7113951E-1,1.6529027E-1,1.6068403E-1,1.564227E-1],"split_indices":[9,7,7,6,9,11,9,0,0,0,0,0,0,0,0],"split_type":[0,0,0,0,0,0,0,0,0,0,0,0,0,0,0],"sum_hessian":[6.1856133E1,5.315996E1,8.696172E0,4.4525387E1,8.634573E0,3.7540734E0,4.9420986E0,2.7416714E1,1.7108675E1,7.5457172E0,1.0888557E0,1.7503239E0,2.0037496E0,2.3257225E0,2.6163762E0],"tree_param":{"num_deleted":"0","num_feature":"21","num_nodes":"15","size_leaf_vector":"0"}},{"base_weights":[-2.1495907E-2,1.8240545E-2,-7.941849E-1,4.1541868E-1,-7.017398E-2,-6.0559696E-1,-1.4667206E0,5.329826E-1,-4.6285307E-1,-3.175473E-1,1.6470049E-2,-7.960872E-1,-5.3006405E-1],"categories":[],"categories_nodes":[],"categories_segments":[],"categories_sizes":[],"default_left":[true,true,true,true,true,true,false,false,false,false,false,false,false],"id":66,"left_children":[1,3,5,7,9,11,-1,-1,-1,-1,-1,-1,-1],"loss_changes":[3.009875E0,3.2740462E0,6.081207E-1,1.7527914E0,1.6344833E0,5.3878903E-2,0E0,0E0,0E0,0E0,0E0,0E0,0E0],"parents":[2147483647,0,0,1,1,2,2,3,3,4,4,5,5],"right_children":[2,4,6,8,10,12,-1,-1,-1,-1,-1,-1,-1],"split_conditions":[1.23500004E-1,4.25E1,1.325E2,1.485E2,5E-4,2.1E1,-4.4001618E-1,1.5989478E-1,-1.3885593E-1,-9.526419E-2,4.9410146E-3,-2.3882617E-1,-1.5901922E-1],"split_indices":[2,7,0,0,3,7,0,0,0,0,0,0,0],"split_type":[0,0,0,0,0,0,0,0,0,0,0,0,0],"sum_hessian":[9.8029015E1,9.323433E1,4.7946863E0,1.6975687E1,7.6258644E1,3.7446392E0,1.050047E0,1.4971613E1,2.0040736E0,1.9781477E1,5.647717E1,1.0632285E0,2.6814106E0],"tree_param":{"num_deleted":"0","num_feature":"21","num_nodes":"13","size_leaf_vector":"0"}},{"base_weights":[-1.4679578E-2,-2.8407706E-2,1.5556756E0,2.1278873E-2,-9.082377E-1,-2.0017779E-1,1.2080514E-1,-6.4417416E-1,-1.5965179E0],"categories":[],"categories_nodes":[],"categories_segments":[],"categories_sizes":[],"default_left":[true,true,false,true,true,false,false,false,false],"id":67,"left_children":[1,3,-1,5,7,-1,-1,-1,-1],"loss_changes":[2.5548208E0,5.13581E0,0E0,2.4509768E0,1.1413713E0,0E0,0E0,0E0,0E0],"parents":[2147483647,0,0,1,1,3,3,4,4],"right_children":[2,4,-1,6,8,-1,-1,-1,-1],"split_conditions":[3.8849998E-1,2.55E-2,4.667027E-1,1.375E2,9.5E0,-6.0053337E-2,3.6241543E-2,-1.9325225E-1,-4.789554E-1],"split_indices":[2,2,0,17,9,0,0,0,0],"split_type":[0,0,0,0,0,0,0,0,0],"sum_hessian":[1.1850897E2,1.1748194E2,1.0270334E0,1.11202034E2,6.2799053E0,3.44801E1,7.672194E1,4.5386286E0,1.7412765E0],"tree_param":{"num_deleted":"0","num_feature":"21","num_nodes":"9","size_leaf_vector":"0"}},{"base_weights":[1.7734649E-2,4.7469327E-1,-5.853524E-2,1.8225005E-1,1.485348E0,-1.43493E-1,4.7187522E-1,-6.074727E-1,3.339449E-1,-4.426138E-2,-5.515109E-1,1.292177E-1,5.342944E-1],"categories":[],"categories_nodes":[],"categories_segments":[],"categories_sizes":[],"default_left":[true,true,true,true,false,true,true,false,false,false,false,false,false],"id":68,"left_children":[1,3,5,7,-1,9,11,-1,-1,-1,-1,-1,-1],"loss_changes":[1.9673806E0,2.3863964E0,2.1799023E0,7.5018674E-1,0E0,1.6882168E0,1.4284623E-1,0E0,0E0,0E0,0E0,0E0,0E0],"parents":[2147483647,0,0,1,1,2,2,3,3,5,5,6,6],"right_children":[2,4,6,8,-1,10,12,-1,-1,-1,-1,-1,-1],"split_conditions":[-5E-1,1.48E2,6.85E1,2.8E1,4.456044E-1,4.15E1,1.305E2,-1.8224183E-1,1.0018347E-1,-1.32784145E-2,-1.6545327E-1,3.876531E-2,1.6028833E-1],"split_indices":[20,16,9,11,0,9,16,0,0,0,0,0,0],"split_type":[0,0,0,0,0,0,0,0,0,0,0,0,0],"sum_hessian":[5.644928E1,8.074175E0,4.8375107E1,6.2621565E0,1.8120186E0,4.1696438E1,6.678669E0,1.0090494E0,5.253107E0,3.3539494E1,8.156943E0,1.0291318E0,5.649537E0],"tree_param":{"num_deleted":"0","num_feature":"21","num_nodes":"13","size_leaf_vector":"0"}},{"base_weights":[-6.1928958E-2,7.575458E-2,-2.540095E-1,4.9246728E-1,-1.137458E-1,-3.293885E-1,3.0654433E-1,2.2866437E-1,1.320586E0,2.6806524E-2,-3.768573E-1,-4.008545E-1,9.661627E-2,-3.495924E-1,7.5137085E-1],"categories":[],"categories_nodes":[],"categories_segments":[],"categories_sizes":[],"default_left":[true,true,true,true,true,true,true,false,false,false,false,false,false,false,false],"id":69,"left_children":[1,3,5,7,9,11,13,-1,-1,-1,-1,-1,-1,-1,-1],"loss_changes":[2.74837E0,4.7800965E0,1.833396E0,4.1337743E0,1.5387893E0,1.1644173E0,1.5011103E0,0E0,0E0,0E0,0E0,0E0,0E0,0E0,0E0],"parents":[2147483647,0,0,1,1,2,2,3,3,4,4,5,5,6,6],"right_children":[2,4,6,8,10,12,14,-1,-1,-1,-1,-1,-1,-1,-1],"split_conditions":[5.95E1,2.5E0,1.5E-3,5.35E1,1.485E2,3.5E-3,-5E-1,6.859931E-2,3.961758E-1,8.041957E-3,-1.13057196E-1,-1.2025636E-1,2.8984882E-2,-1.0487772E-1,2.2541127E-1],"split_indices":[7,19,1,7,17,4,20,0,0,0,0,0,0,0,0],"split_type":[0,0,0,0,0,0,0,0,0,0,0,0,0,0,0],"sum_hessian":[1.0392255E2,6.0532665E1,4.338988E1,1.8922329E1,4.1610336E1,3.824675E1,5.1431317E0,1.4350786E1,4.5715423E0,2.7121971E1,1.4488366E1,3.2752274E1,5.494478E0,2.0779996E0,3.065132E0],"tree_param":{"num_deleted":"0","num_feature":"21","num_nodes":"15","size_leaf_vector":"0"}},{"base_weights":[1.9009173E-2,4.4536654E-2,-5.2462804E-1,-2.1974247E-2,2.3628572E-1,-5.195478E-1,-5.346549E-1,-2.1941298E-1,1.0777334E-1,9.493946E-2,4.3951896E-1,-5.229096E-1,-5.129776E-1],"categories":[],"categories_nodes":[],"categories_segments":[],"categories_sizes":[],"default_left":[true,true,true,true,true,true,false,false,false,false,false,false,false],"id":70,"left_children":[1,3,5,7,9,11,-1,-1,-1,-1,-1,-1,-1],"loss_changes":[1.6114745E0,1.4145021E0,2.6524067E-4,2.1095283E0,8.20526E-1,7.635355E-5,0E0,0E0,0E0,0E0,0E0,0E0,0E0],"parents":[2147483647,0,0,1,1,2,2,3,3,4,4,5,5],"right_children":[2,4,6,8,10,12,-1,-1,-1,-1,-1,-1,-1],"split_conditions":[6.9E1,1.325E2,2.9E1,2.5E0,1.5E0,7.65E1,-1.6039649E-1,-6.58239E-2,3.2332003E-2,2.848184E-2,1.318557E-1,-1.5687288E-1,-1.5389329E-1],"split_indices":[9,12,11,14,14,9,0,0,0,0,0,0,0],"split_type":[0,0,0,0,0,0,0,0,0,0,0,0,0],"sum_hessian":[1.1611981E2,1.1091174E2,5.2080646E0,8.234812E1,2.8563622E1,3.4566991E0,1.7513653E0,3.2655613E1,4.969251E1,1.6846846E1,1.1716777E1,2.286678E0,1.1700209E0],"tree_param":{"num_deleted":"0","num_feature":"21","num_nodes":"13","size_leaf_vector":"0"}},{"base_weights":[1.4107761E-1,5.404523E-1,6.147279E-2,-9.25135E-2,8.792992E-1,-3.214878E-1,1.9509141E-1,-5.395275E-1,3.133219E-1,2.4152045E-1,1.0560495E0,-5.360475E-1,5.214287E-1,6.731296E-2,6.253612E-1],"categories":[],"categories_nodes":[],"categories_segments":[],"categories_sizes":[],"default_left":[true,true,true,true,true,true,true,false,false,false,false,false,false,false,false],"id":71,"left_children":[1,3,5,7,9,11,13,-1,-1,-1,-1,-1,-1,-1,-1],"loss_changes":[1.6912458E0,1.8962388E0,2.269716E0,5.5924374E-1,6.491375E-1,2.074977E0,1.8078653E0,0E0,0E0,0E0,0E0,0E0,0E0,0E0,0E0],"parents":[2147483647,0,0,1,1,2,2,3,3,4,4,5,5,6,6],"right_children":[2,4,6,8,10,12,14,-1,-1,-1,-1,-1,-1,-1,-1],"split_conditions":[5E-1,5E-1,2.75E1,1.485E2,1.55E1,7.15E1,1.295E2,-1.6185825E-1,9.399657E-2,7.245614E-2,3.1681484E-1,-1.6081426E-1,1.5642862E-1,2.019389E-2,1.8760838E-1],"split_indices":[14,20,11,0,9,9,12,0,0,0,0,0,0,0,0],"split_type":[0,0,0,0,0,0,0,0,0,0,0,0,0,0,0],"sum_hessian":[5.3196964E1,8.841159E0,4.4355804E1,3.0826921E0,5.7584667E0,1.1473093E1,3.288271E1,1.4669244E0,1.6157676E0,1.2495689E0,4.508898E0,9.1452265E0,2.3278666E0,2.535343E1,7.529281E0],"tree_param":{"num_deleted":"0","num_feature":"21","num_nodes":"15","size_leaf_vector":"0"}},{"base_weights":[-2.3942102E-2,9.0931304E-2,-1.8562958E-1,4.998846E-1,-1.22910656E-1,-3.1421462E-1,4.5946136E-2,9.071323E-1,7.227163E-2,-1.9914426E-1,5.301755E-1,-4.9598375E-1,-1.6139466E-1,2.9535174E-1,-3.057888E-1],"categories":[],"categories_nodes":[],"categories_segments":[],"categories_sizes":[],"default_left":[true,true,true,true,true,true,true,false,false,false,false,false,false,false,false],"id":72,"left_children":[1,3,5,7,9,11,13,-1,-1,-1,-1,-1,-1,-1,-1],"loss_changes":[1.8308494E0,5.0397506E0,1.2191832E0,3.4458747E0,1.8840299E0,7.312777E-1,1.2823342E0,0E0,0E0,0E0,0E0,0E0,0E0,0E0,0E0],"parents":[2147483647,0,0,1,1,2,2,3,3,4,4,5,5,6,6],"right_children":[2,4,6,8,10,12,14,-1,-1,-1,-1,-1,-1,-1,-1],"split_conditions":[5.95E1,3.5E0,6.5E-1,1.515E2,4.5E-3,2.35E1,3.5E1,2.721397E-1,2.168149E-2,-5.974328E-2,1.5905266E-1,-1.4879513E-1,-4.84184E-2,8.860552E-2,-9.173664E-2],"split_indices":[7,19,8,17,1,11,19,0,0,0,0,0,0,0,0],"split_type":[0,0,0,0,0,0,0,0,0,0,0,0,0,0,0],"sum_hessian":[9.857272E1,5.7629173E1,4.094355E1,1.9787457E1,3.7841713E1,2.6325832E1,1.4617717E1,1.0135073E1,9.652385E0,3.3886234E1,3.9554808E0,1.2024041E1,1.4301792E1,8.553011E0,6.064706E0],"tree_param":{"num_deleted":"0","num_feature":"21","num_nodes":"15","size_leaf_vector":"0"}},{"base_weights":[-4.2155214E-2,-4.353782E-3,-5.1990753E-1,1.008339E-1,-1.5840644E-1,-5.874905E-1,-9.9360734E-2,-3.5295222E-2,4.2308185E-1,5.9559774E-1,-2.5310034E-1,-5.5073535E-1,-8.0806714E-1],"categories":[],"categories_nodes":[],"categories_segments":[],"categories_sizes":[],"default_left":[true,true,true,true,true,true,false,false,false,false,false,false,false],"id":73,"left_children":[1,3,5,7,9,11,-1,-1,-1,-1,-1,-1,-1],"loss_changes":[2.0079086E0,1.6695362E0,2.3169637E-1,2.6857748E0,2.9848313E0,5.6940794E-2,0E0,0E0,0E0,0E0,0E0,0E0,0E0],"parents":[2147483647,0,0,1,1,2,2,3,3,4,4,5,5],"right_children":[2,4,6,8,10,12,-1,-1,-1,-1,-1,-1,-1],"split_conditions":[3.5E-3,1.415E2,1.995E2,1.425E2,1.555E2,1.405E2,-2.9808221E-2,-1.0588567E-2,1.2692456E-1,1.7867933E-1,-7.59301E-2,-1.6522062E-1,-2.4242015E-1],"split_indices":[4,0,13,16,13,0,0,0,0,0,0,0,0],"split_type":[0,0,0,0,0,0,0,0,0,0,0,0,0],"sum_hessian":[1.11181595E2,1.0302954E2,8.152057E0,6.122494E1,4.18046E1,7.023381E0,1.1286758E0,4.3042316E1,1.8182623E1,4.664368E0,3.7140232E1,6.020219E0,1.0031624E0],"tree_param":{"num_deleted":"0","num_feature":"21","num_nodes":"13","size_leaf_vector":"0"}},{"base_weights":[-8.794918E-2,1.5033694E-1,-2.6640147E-1,3.6226687E-1,-1.7207898E-1,-3.946397E-1,4.3272287E-1,4.427747E-1,-2.351962E-1,3.1042743E-1,-7.5202507E-1,-5.5720013E-1,-2.4419208E-1,5.270712E-1,1.1907419E-1],"categories":[],"categories_nodes":[],"categories_segments":[],"categories_sizes":[],"default_left":[true,true,true,true,true,true,true,false,false,false,false,false,false,false,false],"id":74,"left_children":[1,3,5,7,9,11,13,-1,-1,-1,-1,-1,-1,-1,-1],"loss_changes":[2.1512802E0,1.4802787E0,2.5934818E0,6.287501E-1,2.4043367E0,5.978191E-1,1.3268155E-1,0E0,0E0,0E0,0E0,0E0,0E0,0E0,0E0],"parents":[2147483647,0,0,1,1,2,2,3,3,4,4,5,5,6,6],"right_children":[2,4,6,8,10,12,14,-1,-1,-1,-1,-1,-1,-1,-1],"split_conditions":[1.285E2,4.5E-3,6.85E1,1.225E2,1.095E2,2.85E1,3.5E-3,1.3283242E-1,-7.055886E-2,9.3128234E-2,-2.2560753E-1,-1.6716005E-1,-7.3257625E-2,1.5812136E-1,3.572226E-2],"split_indices":[18,3,9,17,17,9,3,0,0,0,0,0,0,0,0],"split_type":[0,0,0,0,0,0,0,0,0,0,0,0,0,0,0],"sum_hessian":[5.0591328E1,2.1663803E1,2.8927525E1,1.30716E1,8.592203E0,2.4443863E1,4.483662E0,1.151937E1,1.5522294E0,4.690106E0,3.9020975E0,1.1748966E1,1.2694897E1,3.4468262E0,1.036836E0],"tree_param":{"num_deleted":"0","num_feature":"21","num_nodes":"15","size_leaf_vector":"0"}},{"base_weights":[-5.4785527E-2,8.823358E-2,-2.8326017E-1,1.3493966E-1,-2.4062692E-1,-3.677736E-1,4.7429422E-1,6.1194964E-2,5.117768E-1,-5.4829425E-1,2.4899864E-1,-3.1702834E-1,-8.873793E-1,7.5557405E-1,-1.587349E-1],"categories":[],"categories_nodes":[],"categories_segments":[],"categories_sizes":[],"default_left":[true,true,true,true,true,true,true,false,false,false,false,false,false,false,false],"id":75,"left_children":[1,3,5,7,9,11,13,-1,-1,-1,-1,-1,-1,-1,-1],"loss_changes":[3.0107758E0,8.7039804E-1,2.2710593E0,1.3789296E0,1.0616095E0,8.4144354E-1,6.339132E-1,0E0,0E0,0E0,0E0,0E0,0E0,0E0,0E0],"parents":[2147483647,0,0,1,1,2,2,3,3,4,4,5,5,6,6],"right_children":[2,4,6,8,10,12,14,-1,-1,-1,-1,-1,-1,-1,-1],"split_conditions":[9.75E0,5E-4,1.68E1,2.5E-3,4.75E0,2.75E1,4.55E1,1.835849E-2,1.5353304E-1,-1.6448829E-1,7.4699596E-2,-9.510851E-2,-2.662138E-1,2.2667222E-1,-4.762047E-2],"split_indices":[10,6,10,4,10,9,19,0,0,0,0,0,0,0,0],"split_type":[0,0,0,0,0,0,0,0,0,0,0,0,0,0,0],"sum_hessian":[9.21396E1,5.666734E1,3.5472263E1,4.9620094E1,7.047244E0,3.1912117E1,3.5601437E0,4.1499E1,8.121097E0,4.327783E0,2.7194607E0,2.9072834E1,2.8392842E0,2.464894E0,1.0952498E0],"tree_param":{"num_deleted":"0","num_feature":"21","num_nodes":"15","size_leaf_vector":"0"}},{"base_weights":[5.9041534E-2,-5.6731913E-2,2.4960726E-1,5.7015646E-1,-1.2908451E-1,1.23668656E-1,4.9858546E-1,-5.096535E-1,9.2879516E-1,3.366107E-2,-2.9948044E-1,1.9202152E-1,-4.7955206E-1,7.510769E-1,2.5552088E-1],"categories":[],"categories_nodes":[],"categories_segments":[],"categories_sizes":[],"default_left":[true,true,true,true,true,true,true,false,false,false,false,false,false,false,false],"id":76,"left_children":[1,3,5,7,9,11,13,-1,-1,-1,-1,-1,-1,-1,-1],"loss_changes":[2.2093205E0,2.8254757E0,1.1866744E0,2.4961972E0,1.5487415E0,1.0362647E0,7.8019595E-1,0E0,0E0,0E0,0E0,0E0,0E0,0E0,0E0],"parents":[2147483647,0,0,1,1,2,2,3,3,4,4,5,5,6,6],"right_children":[2,4,6,8,10,12,14,-1,-1,-1,-1,-1,-1,-1,-1],"split_conditions":[1.475E2,1.205E2,8.5E-1,1.145E2,5.5E-1,5E-1,5E-4,-1.5289606E-1,2.7863857E-1,1.0098321E-2,-8.984414E-2,5.760646E-2,-1.4386563E-1,2.2532307E-1,7.665627E-2],"split_indices":[17,16,8,18,8,15,1,0,0,0,0,0,0,0,0],"split_type":[0,0,0,0,0,0,0,0,0,0,0,0,0,0,0],"sum_hessian":[1.0013938E2,6.229414E1,3.7845245E1,6.4457655E0,5.5848373E1,2.5132618E1,1.2712628E1,1.6070793E0,4.838686E0,2.8565445E1,2.7282928E1,2.2574617E1,2.5580015E0,6.2353992E0,6.477229E0],"tree_param":{"num_deleted":"0","num_feature":"21","num_nodes":"15","size_leaf_vector":"0"}},{"base_weights":[1.6475593E-1,5.909185E-1,9.349687E-2,7.5436103E-1,-3.1310603E-1,1.6543303E-1,-3.844937E-1,2.570575E-1,9.161009E-1,2.3455192E-1,-2.384667E-1,-5.4481816E-1,-1.05049096E-1],"categories":[],"categories_nodes":[],"categories_segments":[],"categories_sizes":[],"default_left":[true,true,true,true,false,true,true,false,false,false,false,false,false],"id":77,"left_children":[1,3,5,7,-1,9,11,-1,-1,-1,-1,-1,-1],"loss_changes":[1.4723496E0,1.0262578E0,1.4282782E0,4.7312427E-1,0E0,1.0079315E0,2.4343562E-1,0E0,0E0,0E0,0E0,0E0,0E0],"parents":[2147483647,0,0,1,1,2,2,3,3,5,5,6,6],"right_children":[2,4,6,8,-1,10,12,-1,-1,-1,-1,-1,-1],"split_conditions":[5E-1,1E-3,1.325E2,5E-1,-9.393182E-2,1.845E2,5E-1,7.711725E-2,2.7483028E-1,7.036558E-2,-7.154001E-2,-1.6344546E-1,-3.151473E-2],"split_indices":[14,3,12,20,0,13,20,0,0,0,0,0,0],"split_type":[0,0,0,0,0,0,0,0,0,0,0,0,0],"sum_hessian":[4.848368E1,6.9456205E0,4.153806E1,5.882159E0,1.0634614E0,3.6104446E1,5.4336123E0,1.4435767E0,4.4385824E0,3.0828758E1,5.2756896E0,3.4527068E0,1.9809052E0],"tree_param":{"num_deleted":"0","num_feature":"21","num_nodes":"13","size_leaf_vector":"0"}},{"base_weights":[1.9091446E-2,-8.00178E-2,2.5210872E-1,2.111954E-2,-2.9975608E-1,4.5275158E-1,-2.7174033E-2,8.28249E-2,-5.353586E-1,-4.0665486E-1,4.6954632E-1,5.164424E-1,-4.163514E-1,4.4774738E-1,-1.969173E-1],"categories":[],"categories_nodes":[],"categories_segments":[],"categories_sizes":[],"default_left":[true,true,true,true,true,true,true,false,false,false,false,false,false,false,false],"id":78,"left_children":[1,3,5,7,9,11,13,-1,-1,-1,-1,-1,-1,-1,-1],"loss_changes":[2.0683768E0,1.3964622E0,1.4976339E0,1.4775832E0,1.6287577E0,8.609073E-1,9.007452E-1,0E0,0E0,0E0,0E0,0E0,0E0,0E0,0E0],"parents":[2147483647,0,0,1,1,2,2,3,3,4,4,5,5,6,6],"right_children":[2,4,6,8,10,12,14,-1,-1,-1,-1,-1,-1,-1,-1],"split_conditions":[5E-4,1.5E-3,5.5E0,6.05E1,1.15E1,1.5E2,1.325E2,2.4847472E-2,-1.6060759E-1,-1.2199646E-1,1.408639E-1,1.5493274E-1,-1.2490543E-1,1.3432422E-1,-5.907519E-2],"split_indices":[1,2,14,9,19,0,0,0,0,0,0,0,0,0,0],"split_type":[0,0,0,0,0,0,0,0,0,0,0,0,0,0,0],"sum_hessian":[8.956274E1,6.283649E1,2.6726244E1,4.303095E1,1.980554E1,1.5552784E1,1.1173459E1,3.873572E1,4.29523E0,1.7389214E1,2.4163263E0,1.4490846E1,1.0619389E0,2.9420247E0,8.231435E0],"tree_param":{"num_deleted":"0","num_feature":"21","num_nodes":"15","size_leaf_vector":"0"}},{"base_weights":[1.5525772E-2,6.663164E-1,-2.3188943E-2,-1.354328E-3,2.4107165E0,-7.3118865E-2,3.1497374E-1,-5.149311E-1,1.3404725E0,2.4297941E-2,-2.523957E-1,4.589773E-1,9.142368E-2],"categories":[],"categories_nodes":[],"categories_segments":[],"categories_sizes":[],"default_left":[true,true,true,true,false,true,true,false,false,false,false,false,false],"id":79,"left_children":[1,3,5,7,-1,9,11,-1,-1,-1,-1,-1,-1],"loss_changes":[2.3861177E0,6.1932898E0,1.5092623E0,2.6501522E0,0E0,1.3602743E0,3.7021303E-1,0E0,0E0,0E0,0E0,0E0,0E0],"parents":[2147483647,0,0,1,1,2,2,3,3,5,5,6,6],"right_children":[2,4,6,8,-1,10,12,-1,-1,-1,-1,-1,-1],"split_conditions":[1.125E2,1.115E2,1.845E2,6.1000004E0,7.23215E-1,6.5E-1,1.955E2,-1.5447932E-1,4.0214175E-1,7.2893826E-3,-7.571871E-2,1.376932E-1,2.7427105E-2],"split_indices":[17,17,13,8,0,8,13,0,0,0,0,0,0],"split_type":[0,0,0,0,0,0,0,0,0,0,0,0,0],"sum_hessian":[9.470535E1,5.317567E0,8.938779E1,3.8456435E0,1.4719234E0,7.788763E1,1.15001545E1,2.7811673E0,1.0644764E0,5.046537E1,2.7422258E1,6.9945173E0,4.5056376E0],"tree_param":{"num_deleted":"0","num_feature":"21","num_nodes":"13","size_leaf_vector":"0"}},{"base_weights":[-3.7548862E-2,-3.8908726E-1,1.1907668E-1,5.127069E-1,-5.310765E-1,5.9229916E-1,-1.5335843E-1,-7.7497894E-1,-3.7598097E-1,1.0614184E0,4.8526797E-1,-5.478747E-1,3.231645E-2],"categories":[],"categories_nodes":[],"categories_segments":[],"categories_sizes":[],"default_left":[true,true,true,false,true,true,true,false,false,false,false,false,false],"id":80,"left_children":[1,3,5,-1,7,9,11,-1,-1,-1,-1,-1,-1],"loss_changes":[2.4417326E0,1.7501864E0,3.9551246E0,0E0,4.4671845E-1,5.627935E-1,1.4261844E0,0E0,0E0,0E0,0E0,0E0,0E0],"parents":[2147483647,0,0,1,1,2,2,4,4,5,5,6,6],"right_children":[2,4,6,-1,8,10,12,-1,-1,-1,-1,-1,-1],"split_conditions":[1.305E2,9.75E1,1.365E2,1.5381207E-1,1.165E2,2.5E-1,2.35E1,-2.3249368E-1,-1.12794295E-1,3.1842554E-1,1.455804E-1,-1.6436242E-1,9.694936E-3],"split_indices":[0,17,18,0,18,8,9,0,0,0,0,0,0],"split_type":[0,0,0,0,0,0,0,0,0,0,0,0,0],"sum_hessian":[4.4346848E1,1.366852E1,3.0678328E1,1.859373E0,